/*
 * Copyright (c) 2024 EdgeImpulse Inc.
 *
 * Generated by Edge Impulse and licensed under the applicable Edge Impulse
 * Terms of Service. Community and Professional Terms of Service
 * (https://docs.edgeimpulse.com/page/terms-of-service) or Enterprise Terms of
 * Service (https://docs.edgeimpulse.com/page/enterprise-terms-of-service),
 * according to your product plan subscription (the “License”).
 *
 * This software, documentation and other associated files (collectively referred
 * to as the “Software”) is a single SDK variation generated by the Edge Impulse
 * platform and requires an active paid Edge Impulse subscription to use this
 * Software for any purpose.
 *
 * You may NOT use this Software unless you have an active Edge Impulse subscription
 * that meets the eligibility requirements for the applicable License, subject to
 * your full and continued compliance with the terms and conditions of the License,
 * including without limitation any usage restrictions under the applicable License.
 *
 * If you do not have an active Edge Impulse product plan subscription, or if use
 * of this Software exceeds the usage limitations of your Edge Impulse product plan
 * subscription, you are not permitted to use this Software and must immediately
 * delete and erase all copies of this Software within your control or possession.
 * Edge Impulse reserves all rights and remedies available to enforce its rights.
 *
 * Unless required by applicable law or agreed to in writing, the Software is
 * distributed on an "AS IS" BASIS, WITHOUT WARRANTIES OR CONDITIONS OF ANY KIND,
 * either express or implied. See the License for the specific language governing
 * permissions, disclaimers and limitations under the License.
 */
// Generated on: 06.10.2024 19:41:14

#include <stdio.h>
#include <stdlib.h>
#include "edge-impulse-sdk/tensorflow/lite/c/builtin_op_data.h"
#include "edge-impulse-sdk/tensorflow/lite/c/common.h"
#include "edge-impulse-sdk/tensorflow/lite/micro/micro_mutable_op_resolver.h"
#include "edge-impulse-sdk/porting/ei_classifier_porting.h"

#if EI_CLASSIFIER_PRINT_STATE
#if defined(__cplusplus) && EI_C_LINKAGE == 1
extern "C" {
    extern void ei_printf(const char *format, ...);
}
#else
extern void ei_printf(const char *format, ...);
#endif
#endif

#if defined (__GNUC__)  /* GNU compiler */
#define ALIGN(X) __attribute__((aligned(X)))
#define DEFINE_SECTION(x) __attribute__((section(x)))
#elif defined (_MSC_VER)
#define ALIGN(X) __declspec(align(X))
#elif defined (__TASKING__) /* TASKING Compiler */
#define ALIGN(X) __align(X)
#define DEFINE_SECTION(x) __attribute__(section(x)))
#elif defined (__ARMCC_VERSION) /* Arm Compiler */
#define ALIGN(X) __ALIGNED(x)
#define DEFINE_SECTION(x) __attribute__((section(x)))
#elif defined (__ICCARM__) /* IAR Compiler */
#define ALIGN(x) __attribute__((aligned(x)))
#define DEFINE_SECTION(x) __attribute__((section(x)))
#elif defined (__clang__) /* LLVM/Clang Compiler */
#define ALIGN(X) __ALIGNED(x)
#define DEFINE_SECTION(x) __attribute__((section(x)))
#endif

#ifndef EI_MAX_SCRATCH_BUFFER_COUNT
#ifndef CONFIG_IDF_TARGET_ESP32S3
#define EI_MAX_SCRATCH_BUFFER_COUNT 36
#else
#define EI_MAX_SCRATCH_BUFFER_COUNT 72
#endif // CONFIG_IDF_TARGET_ESP32S3
#endif // EI_MAX_SCRATCH_BUFFER_COUNT

#ifndef EI_MAX_OVERFLOW_BUFFER_COUNT
#define EI_MAX_OVERFLOW_BUFFER_COUNT 10
#endif // EI_MAX_OVERFLOW_BUFFER_COUNT

using namespace tflite;
using namespace tflite::ops;
using namespace tflite::ops::micro;

namespace {

#if defined(EI_CLASSIFIER_ALLOCATION_STATIC_HIMAX) || defined(EI_CLASSIFIER_ALLOCATION_STATIC_HIMAX_GNU)
constexpr int kTensorArenaSize = 101888;
#else
constexpr int kTensorArenaSize = 100864;
#endif

#if defined(EI_CLASSIFIER_ALLOCATION_STATIC)
#if defined (EI_TENSOR_ARENA_LOCATION)
#define STRINGIZE(x) #x
#define STRINGIZE_VALUE_OF(x) STRINGIZE(x)
uint8_t tensor_arena[kTensorArenaSize] ALIGN(16) DEFINE_SECTION(STRINGIZE_VALUE_OF(EI_TENSOR_ARENA_LOCATION));
#else
uint8_t tensor_arena[kTensorArenaSize] ALIGN(16);
#endif
#elif defined(EI_CLASSIFIER_ALLOCATION_STATIC_HIMAX)
#pragma Bss(".tensor_arena")
uint8_t tensor_arena[kTensorArenaSize] ALIGN(16);
#pragma Bss()
#elif defined(EI_CLASSIFIER_ALLOCATION_STATIC_HIMAX_GNU)
uint8_t tensor_arena[kTensorArenaSize] ALIGN(16) __attribute__((section(".tensor_arena")));
#else
#define EI_CLASSIFIER_ALLOCATION_HEAP 1
uint8_t* tensor_arena = NULL;
#endif

static uint8_t* tensor_boundary;
static uint8_t* current_location;

template <int SZ, class T> struct TfArray {
  int sz; T elem[SZ];
};

enum used_operators_e {
  OP_CONV_2D, OP_DEPTHWISE_CONV_2D, OP_ADD, OP_PAD, OP_FULLY_CONNECTED, OP_RESHAPE, OP_SOFTMAX,  OP_LAST
};

struct TensorInfo_t { // subset of TfLiteTensor used for initialization from constant memory
  TfLiteAllocationType allocation_type;
  TfLiteType type;
  void* data;
  TfLiteIntArray* dims;
  size_t bytes;
  TfLiteQuantization quantization;
};

typedef struct {
  TfLiteTensor tensor;
  int16_t index;
} TfLiteTensorWithIndex;

typedef struct {
  TfLiteEvalTensor tensor;
  int16_t index;
} TfLiteEvalTensorWithIndex;

TfLiteContext ctx{};
static const int MAX_TFL_TENSOR_COUNT = 4;
static TfLiteTensorWithIndex tflTensors[MAX_TFL_TENSOR_COUNT];
static const int MAX_TFL_EVAL_COUNT = 4;
static TfLiteEvalTensorWithIndex tflEvalTensors[MAX_TFL_EVAL_COUNT];
TfLiteRegistration registrations[OP_LAST];

namespace g0 {
const TfArray<4, int> tensor_dimension0 = { 4, { 1,48,48,1 } };
const TfArray<1, float> quant0_scale = { 1, { 0.0039215688593685627, } };
const TfArray<1, int> quant0_zero = { 1, { -128 } };
const TfLiteAffineQuantization quant0 = { (TfLiteFloatArray*)&quant0_scale, (TfLiteIntArray*)&quant0_zero, 0 };
const ALIGN(16) int32_t tensor_data1[4*2] = { 
  0, 0, 
  0, 1, 
  0, 1, 
  0, 0, 
};
const TfArray<2, int> tensor_dimension1 = { 2, { 4,2 } };
const ALIGN(16) int32_t tensor_data2[4*2] = { 
  0, 0, 
  1, 1, 
  1, 1, 
  0, 0, 
};
const TfArray<2, int> tensor_dimension2 = { 2, { 4,2 } };
const ALIGN(8) int32_t tensor_data3[2] = { -1, 32, };
const TfArray<1, int> tensor_dimension3 = { 1, { 2 } };
const ALIGN(8) int32_t tensor_data4[2] = { 44, -44, };
const TfArray<1, int> tensor_dimension4 = { 1, { 2 } };
const TfArray<1, float> quant4_scale = { 1, { 8.8187545770779252e-05, } };
const TfArray<1, int> quant4_zero = { 1, { 0 } };
const TfLiteAffineQuantization quant4 = { (TfLiteFloatArray*)&quant4_scale, (TfLiteIntArray*)&quant4_zero, 0 };
const ALIGN(16) int8_t tensor_data5[2*32] = { 
  81, -35, -39, 112, -81, 21, -56, 78, 127, -35, -34, -8, -8, 95, -48, 40, 122, -82, -40, -94, 101, 88, 90, -57, -59, -87, -48, 82, 2, -89, -12, 71, 
  54, 84, 75, -76, -80, 75, -12, 13, -49, -16, 40, 107, 119, 36, 40, -6, -47, 6, -66, -102, -85, 35, 29, 116, 88, 81, -53, -11, 115, -119, -119, -24, 
};
const TfArray<2, int> tensor_dimension5 = { 2, { 2,32 } };
const TfArray<1, float> quant5_scale = { 1, { 0.0034076394513249397, } };
const TfArray<1, int> quant5_zero = { 1, { 0 } };
const TfLiteAffineQuantization quant5 = { (TfLiteFloatArray*)&quant5_scale, (TfLiteIntArray*)&quant5_zero, 0 };
const ALIGN(16) int32_t tensor_data6[8] = { 146, 127, -239, -322, 79, 54, 364, 65, };
const TfArray<1, int> tensor_dimension6 = { 1, { 8 } };
const TfArray<1, float> quant6_scale = { 1, { 1.6874548236955889e-05, } };
const TfArray<1, int> quant6_zero = { 1, { 0 } };
const TfLiteAffineQuantization quant6 = { (TfLiteFloatArray*)&quant6_scale, (TfLiteIntArray*)&quant6_zero, 0 };
const ALIGN(16) int8_t tensor_data7[8*1280] = { 
  -54, 9, -54, -83, -46, 43, 2, -61, 92, -56, 77, -86, 12, -73, -54, -73, 71, 51, 54, -78, -34, 3, 98, -95, -76, -56, -31, -69, -99, -40, 51, -77, 72, -15, 40, 33, -67, 22, 31, 94, -81, 25, -86, 67, -21, 88, 56, 33, 41, 6, -1, 97, -3, -34, -46, 53, -43, -81, -30, -20, 34, -45, -33, -96, -25, -36, 110, -73, -28, 83, 76, 51, -75, -42, 45, 27, -56, 8, 52, -41, -48, 42, 78, 97, -81, -12, 73, -66, 33, 70, -12, -44, 105, 76, 45, -7, -93, -103, -22, 49, -11, 59, 50, -19, 51, 34, -45, 40, -55, 47, 48, 25, 103, -68, -63, 88, 8, 14, 15, 41, -10, -84, 29, 9, -66, 114, 25, -42, 49, 81, -101, -5, -65, -30, 55, -11, -60, 49, 70, 50, 62, -17, 38, 2, -83, 89, -31, -50, -50, -24, 30, -53, -99, -25, -34, 60, 25, 59, -48, -1, 37, 76, 29, -69, -83, 87, -57, -76, -95, -83, 44, 86, 74, -111, 72, -3, 47, -27, 55, 12, -90, -20, 76, -46, 65, -27, 91, 26, -7, 61, 5, 53, 34, 10, -49, -74, -56, -83, -99, -27, -12, -56, 9, -13, 91, -1, 103, 5, -60, -53, -44, 65, -47, -7, 98, 62, -84, -11, 55, 50, 57, -88, 20, -46, 8, 17, 39, 18, 76, 93, 66, 44, 86, -84, 36, 39, -105, 87, 22, -9, -55, 74, 79, 87, 48, 34, 96, -6, -67, 44, 28, 31, 49, 93, 58, 70, -15, -26, 43, -80, 5, -28, 30, 93, 32, -20, -25, -53, 75, 57, 74, -83, 31, -50, 31, -84, 82, 37, 107, 36, 57, 27, -11, -49, -104, 1, -1, -4, 65, 58, 44, -44, -66, 70, 69, 28, 41, 10, 61, 83, 53, 29, 52, 89, -77, -44, 9, 42, 1, 65, 84, -80, -54, 88, -80, -72, 24, 63, 8, -54, 32, 36, 8, -62, 25, 55, -65, -101, 68, -102, 39, -45, -4, -78, 28, -108, -57, 6, 7, 12, -23, 30, 78, 40, -80, 84, 85, -26, 90, -30, 24, -78, 24, 20, 70, -7, 102, -22, 23, -91, -19, -85, 1, 10, -96, 99, 99, -37, 24, -68, 44, -24, 50, -79, -14, 15, 42, -33, -59, -67, 2, 70, 1, 29, -55, -56, 37, -90, -87, -58, -31, -37, 81, -91, -49, -5, 90, 24, -64, -62, -54, 5, 74, -22, 50, 10, 59, 24, 26, -15, 29, -3, -54, -98, -88, -18, 26, -52, 9, -8, -74, 38, 96, 56, 15, 24, -97, -110, -24, -59, 79, 19, 4, 8, 48, 82, -7, -109, 17, -51, 45, -22, 58, -22, -55, 90, -103, 16, 22, 93, -57, -33, 9, 21, 6, 19, -102, 64, 65, 32, -73, -80, -65, 73, -10, 0, -37, 104, -32, -29, -1, 49, 18, -71, 41, -14, 6, -43, 88, 49, -19, 16, -93, -65, -53, 26, -66, 44, -75, 74, 33, -91, -30, -26, -73, -29, 37, -92, -75, -79, -10, 88, 65, 20, 44, -53, 32, -80, 80, -63, -67, -20, 11, 7, 28, 92, -23, -52, 91, 16, -38, -77, 53, -78, 3, -34, -9, -16, 72, -64, 11, 1, 76, 75, 66, -87, 60, -66, -37, 63, 19, -15, -57, -62, -19, -71, 21, -51, -81, -28, -102, -23, -26, -70, -70, 90, -42, -21, -1, 76, 54, -36, -72, 73, 58, 24, 45, -9, -23, -100, -50, 28, -55, -1, -8, 58, 10, -80, 13, 12, -35, -67, 15, -62, 68, 0, 4, -58, 6, 24, 33, 103, -73, -13, -82, 62, -88, 8, -26, 31, -15, 72, 75, 61, -34, 82, 54, -47, 70, -36, 5, 32, 18, -74, -19, 87, 96, -23, -97, -36, -65, 9, 31, -97, 14, 74, 44, 72, -15, 73, 34, -102, -28, 60, 42, 60, -10, -59, 4, 79, 52, 44, -39, -96, 40, 16, -85, 88, -39, -10, 59, 50, -31, 12, -60, -90, 46, -57, 39, 27, 26, 74, -25, 35, -65, -56, 58, -29, -41, -66, 72, -1, -73, 2, 60, -47, 6, 82, 84, -55, -73, 24, -85, 37, -23, 55, -63, 52, -12, -102, -14, 51, -72, -90, -48, -79, 56, 6, 28, 2, 80, 61, 64, -9, -91, 85, -37, -13, 21, -7, -36, 69, 45, 41, 43, 22, 68, -36, -23, 56, -63, -81, 83, 83, 62, -42, -8, 78, 40, -117, 46, 28, -25, 18, -60, 80, 90, -94, -8, 76, -46, 66, -12, 3, 39, -75, -41, -79, -59, -97, 69, 3, -21, -67, 93, 37, -92, -52, 21, 4, -98, 17, -21, 10, 79, -52, -7, 90, 4, -18, 88, -72, -73, -8, -76, -68, 16, 58, 83, -57, 46, 19, 51, -27, -50, -90, -72, -11, 28, 20, -1, 88, 36, -1, 22, 46, -60, 13, -59, 80, -79, 58, 67, -79, -91, -33, 70, 39, 0, 25, -21, -26, -24, 59, 74, 4, -87, 11, 44, -27, 61, 34, -27, 89, -13, -23, -40, 27, 21, -99, 9, 83, -18, 94, -85, -94, -53, 65, -54, -65, 47, 8, 43, 82, -42, 68, -106, 84, -13, -92, -35, 31, -84, -60, 46, -58, -31, -60, -80, -84, 45, 15, 82, -49, -16, 19, -29, -82, 71, 7, 72, -29, 81, -25, 61, 57, 40, 7, 4, -25, 32, 59, 23, -55, -12, -20, -76, -107, -41, -30, 10, 9, -87, -38, 90, 62, -106, -16, -18, 36, -72, 35, -21, 24, 46, 44, 95, 54, 10, 46, 88, 71, -96, -100, -24, -73, -74, 26, -31, -28, 42, -2, -50, -3, 105, 35, -43, 25, 62, -22, 8, 64, -5, 41, 15, 64, 81, 36, 14, 2, -58, 104, 24, -75, 80, -74, -52, 74, -34, 18, -89, -26, 89, -62, -19, 8, 61, -4, -60, 6, -32, -79, 72, 24, -54, 59, -75, 15, 11, -38, -88, -77, 13, 39, 65, -81, -4, -23, 71, 45, 43, 24, -29, -21, 4, 62, -12, -45, -93, 0, -50, 7, -78, 67, 98, 17, -67, 69, -83, -20, -36, 71, 73, 38, -75, -10, 55, -49, -106, -83, 85, -89, 71, -103, -65, 77, 16, 58, -65, 9, -5, -32, -28, 36, -39, 82, -45, -15, 12, -3, -45, -9, 24, -62, 88, 64, 48, 33, -41, -26, -30, 73, -20, -32, -67, 60, 91, 7, 5, 56, 64, -50, 0, -78, 84, -41, 83, -40, 74, 9, -41, 90, -2, -61, 63, -52, -54, 32, -80, 34, -76, -28, 31, -16, -43, 45, -13, 87, 88, 64, 63, -42, 62, -39, 66, -47, 4, -2, -5, 83, -92, -33, 20, -58, 27, -4, -65, 37, -72, 11, -51, 33, -40, 70, 6, 17, 61, -84, -38, -82, -112, -32, 66, -75, -83, -42, 17, 15, 72, -55, -90, 90, -97, 1, -64, -40, 69, 5, -54, -76, -92, -68, -8, 31, -23, -7, -47, 11, 17, 16, -59, -71, -13, -71, 55, 42, -16, -87, 68, -94, -59, 41, -18, 98, -18, 24, -78, 60, 31, -21, -51, 60, -80, -89, -103, -79, 61, 87, 62, 50, 70, 81, -88, 55, -62, -44, 85, -18, -81, 19, 68, 75, 18, -45, -21, 39, -67, -31, 94, 69, 72, -45, -15, 25, -95, -17, 30, 4, -27, 6, 54, 60, -17, -43, -6, -37, 80, 52, 47, 4, -15, -62, 5, 91, 35, 70, -17, 96, -18, -45, -67, -79, -12, -62, -59, -10, 61, 87, -30, 66, -73, -87, -4, 43, -89, -50, -45, -56, 41, -33, -42, -35, 1, 3, -66, -29, -86, -60, 26, -94, -52, -84, 77, 16, 76, 102, -73, -70, 1, 95, 28, 28, 12, -26, 36, -17, -41, -56, -47, 12, -7, 54, -68, 46, -94, 99, 7, 72, 11, -6, 
  -60, 24, 10, -56, 38, 25, -68, -48, -66, 80, 26, -52, 0, 32, 72, 7, -31, 53, -40, 76, 65, -103, -94, -51, 17, -35, -59, -68, 32, -83, -78, 39, 62, 53, 44, 20, -97, 39, -70, -86, -82, -17, 71, -14, 109, 37, 55, 3, 47, 2, 61, 53, -20, -71, 63, -6, 32, -62, -66, -89, 69, -32, 23, -21, 82, 25, 26, -52, -33, 16, 38, 21, 27, -81, 89, 24, 116, -48, 94, -102, -56, -12, -43, 48, -9, 82, -13, 87, 14, -71, -1, 5, 1, -85, -38, -63, 18, 109, 35, 26, 29, -12, 61, -41, -10, -17, -67, -102, 95, 18, 29, 33, -16, 15, 81, 59, -8, -52, -31, -79, 72, -52, -16, 26, -69, 86, 42, 78, 70, 37, -38, 95, 90, 9, -16, -76, -20, 21, 21, 37, 3, 7, -4, 52, 32, -36, -24, 94, 29, -1, 99, -74, 3, -14, -72, -30, -52, -38, -19, -15, -45, 31, -99, -77, 7, -65, -14, 85, -7, 31, 0, -92, -76, -52, -14, -5, -30, 76, -3, 77, 31, 16, 18, 52, -10, -77, 49, 75, -25, 58, -104, 32, -27, 64, 88, -63, -59, 10, 86, 62, 89, -63, -5, -66, 33, -44, 35, -6, -15, 72, -8, 29, 67, -56, 64, -10, -77, -42, 89, -59, -44, 80, -73, 2, 17, 67, -91, -26, 101, -52, 89, 72, 73, -2, -72, -100, 61, 1, -89, 62, -29, -60, 35, 87, 117, 73, -68, 45, -28, 70, 52, 28, -51, -83, 67, 53, -30, -70, -63, -5, 30, -10, -80, 49, 56, 106, 28, -11, 14, 56, -73, 7, 86, -18, -70, -79, 17, 89, 0, 3, 24, 94, 88, -30, -4, -64, 36, -86, -67, 26, -1, 26, 69, 61, -72, -75, -46, -72, -46, 72, 65, -86, 64, 29, 67, -35, 80, 66, -28, -70, -45, 50, -18, -15, 29, 3, 88, 74, -56, 6, -57, 34, -8, 39, 63, 33, -9, 24, -42, 84, -71, -41, -97, 9, -86, 85, 11, -23, -109, -80, 84, -70, 51, -40, -38, 38, 49, -68, -57, -11, -45, -71, 58, 99, 16, -23, 47, 20, 59, -26, 97, -30, -83, 78, 6, 68, -114, 22, 56, 99, -8, -110, 83, -4, 73, -7, 7, 54, 22, -28, 6, -41, 15, -57, -44, 54, 37, -1, -34, -64, -77, 100, 73, -28, -66, 41, 21, 68, -49, -90, -23, -52, 0, 95, 71, 73, -3, 41, -50, -69, 30, 4, 57, -73, 39, 37, 82, -78, -41, 40, -49, 43, -28, -49, 62, 55, -23, 66, 5, -81, 1, -66, 31, 32, -26, 58, 70, 90, 34, 37, -36, 81, -42, -41, 63, 79, -55, 70, -7, -34, 52, -99, 41, -18, -37, 13, 9, -45, 13, 58, 77, 42, 30, 18, -35, -64, -97, -103, 46, -71, 26, -42, 39, 90, 89, -51, 85, -38, -78, -27, -96, 75, 55, -50, -78, 5, 3, 33, 20, -12, 63, -64, 50, 71, 12, -81, 39, 43, 90, -86, 95, 8, 78, 114, 7, 20, -13, 5, -11, 81, -84, 37, -54, 36, 60, 91, -53, 43, -11, 79, 38, -39, 21, 38, -10, 12, 7, -11, 73, 48, -80, -3, 84, 56, -28, -61, -9, 72, 2, 94, 96, -105, -6, -104, -4, 93, -62, 62, -82, 34, -41, -87, 89, 28, 107, -40, -48, 20, -94, 55, -64, -50, 83, -53, -60, -3, 2, 54, -46, -43, -41, 47, 7, 97, 83, 71, -74, 23, 32, -61, 85, -37, -39, -11, 108, -67, -15, 3, -31, -43, 7, -96, 5, 54, -53, 66, 32, -42, 4, 36, -46, 63, 58, 44, 56, 16, 75, -43, 71, -44, -63, -2, 20, -31, -56, -65, 87, 19, 103, 39, 25, 79, -52, 29, 49, 59, 48, -50, -57, -89, 28, -12, -9, -20, -85, 16, 52, 78, -45, -78, -34, -58, -72, 17, -62, 51, -91, -12, 56, -80, -41, -84, -50, 16, 13, -24, -65, 17, 57, -43, -2, -46, -20, 10, 61, 51, -75, 22, -40, 43, -28, -44, -25, 40, -31, 13, 79, -91, -79, -17, -46, -86, 8, -28, -38, 30, -2, 3, -66, 46, -65, -77, 19, -27, 47, -53, 75, 90, 8, -44, 43, 78, -17, -32, 63, -48, 7, 43, 65, -43, 16, 96, 36, 25, 46, -38, -65, 64, 84, 17, -2, -62, -1, 54, 40, -21, -53, -51, -42, 11, -73, -54, -3, 63, -28, 29, 107, -77, -50, -16, 44, 58, -63, -80, 73, -66, 98, -29, -68, 41, 22, 105, -87, -76, -61, -37, 3, 100, 28, -66, -1, 6, -77, 33, -7, 44, -104, 71, -91, -6, 16, -83, -20, -39, 0, 77, -31, 73, -78, 46, 43, -8, -1, -43, 21, 82, 115, 30, -101, 68, -13, -49, -110, -18, -56, -71, -79, 45, -13, 114, 34, -8, 49, 98, 48, -51, -53, 17, 2, -12, 37, -1, 0, -36, 15, -3, -39, -9, -3, -64, 69, 36, -17, 39, -55, -60, 55, 43, 75, 14, -96, -86, 93, 58, -55, -4, -38, 4, -11, -61, 7, 100, 12, -34, 75, -88, 27, -73, -45, 67, 71, 29, -70, 37, -47, -41, -16, -29, 113, 22, 99, 29, -2, 66, 39, 67, -12, 80, 53, -67, -26, -82, 89, -15, -80, -10, 86, -27, 11, 25, -82, -2, 62, 95, 58, -103, 65, -45, -19, -42, -71, 106, -39, 27, 2, -3, 3, -23, -76, -73, -80, -55, -69, 3, 54, 112, -75, 49, 29, 1, 9, 30, 95, -69, -24, -21, -27, -75, -40, -40, 99, 38, -19, -5, 53, 71, -61, 19, 74, 13, -94, -67, 86, -42, 109, 49, 92, -83, -18, -99, 42, -81, -92, 52, -6, 50, 63, 61, -9, -85, -36, -96, 77, 74, -11, 9, 47, -60, -8, 76, 80, -15, 68, 68, 64, 0, -29, 23, 47, 36, 3, -72, 100, 26, -67, -68, -80, 58, 92, 49, 70, -87, -28, -20, -3, -54, -10, 37, 85, -36, -80, 102, -69, -82, -64, 6, 108, 80, -43, -55, 51, -63, 93, 23, -4, -54, 51, -53, -36, 70, 78, 74, -50, -1, 13, 50, 20, 45, -74, -97, -30, -2, 59, -47, -49, 21, -29, -33, 47, 97, -41, -75, -71, -61, -31, -8, -26, 23, -89, 43, -55, -100, -17, 16, 63, -40, -69, 74, -35, -69, 84, -67, 75, -11, 4, 58, -32, 60, -1, 28, 14, -66, -41, 71, 47, 33, 114, 55, -112, 82, -60, -84, 79, 5, 72, 39, -2, 75, 65, 72, 57, 73, 24, 5, 10, -98, 62, -63, 63, -28, 29, -69, -24, -68, -98, -97, 4, -2, -45, 23, 66, 3, -69, 64, 34, 82, 23, -51, 87, -11, 51, -12, -34, -51, 63, -105, -61, 19, 70, 39, 4, 40, -19, -41, -42, 37, 39, 104, -58, -38, 41, -46, -98, -76, -57, -45, 44, 89, -87, -70, -40, -75, -50, 37, 52, 10, 41, 60, -55, 102, 60, -29, 32, -87, 29, 38, -61, 38, -48, 9, 92, 5, -86, -62, 43, 8, -20, -47, -23, 31, -66, 0, 0, 44, -13, -81, -36, 19, 36, -42, -72, 57, -19, -6, 84, 27, 88, 7, -5, -73, 10, -31, -3, 53, 33, -57, 32, 45, 70, 18, 85, 55, 82, 5, -3, -74, 82, -66, 62, 48, -79, -47, 60, -62, 18, -77, -66, 69, -38, -3, -42, 112, -32, -9, -28, -57, -6, 40, 9, -95, -62, 28, 2, 43, 15, -3, -72, 75, 27, 43, -25, 3, -75, -8, -24, 20, 64, -57, -53, 78, 13, 60, -86, -41, -10, 42, 20, 37, 74, 19, -102, -56, 39, -68, -37, 5, 19, 87, -8, -74, -56, -46, -98, 19, -9, -64, -60, 68, -15, 83, 
  59, -53, -85, 54, 33, 92, 74, -105, -39, 74, 73, -14, 71, -61, -43, 7, -4, -16, -19, -81, -41, 78, -104, -7, 56, 78, -87, -12, 97, 16, -10, -14, -91, 54, -7, -66, 66, 22, 71, -96, -29, 11, -89, 95, 104, -50, -29, 82, 74, 70, -42, -61, -23, 61, 26, -44, 55, -17, 39, 20, -93, -5, -57, 0, -58, -43, 3, 84, -44, 70, -16, 25, 16, -71, 41, -69, 31, -56, -30, -56, -77, -31, 77, 1, -14, 5, -36, 51, 74, 34, 12, 75, -4, -82, -56, -1, -30, 44, 28, 40, 75, 23, -68, 49, 100, -93, 0, -1, 1, -108, 77, 46, -65, -34, 23, 19, 65, 54, 24, -8, 53, -81, -5, -85, 71, -65, 22, -4, -60, 62, 52, -31, -20, 86, -27, -41, -78, 78, -92, -72, -89, 67, -103, -56, -78, -27, -25, -48, 54, -9, 34, 68, 68, -25, -34, -34, -26, 46, 46, 105, -103, -26, -24, -55, -62, 82, -3, 83, 24, -97, -16, 46, -12, -8, -21, 20, -70, -77, -95, -30, 85, -29, 4, 85, -28, 1, 15, -28, -76, -25, 0, 72, 79, -9, 19, -19, 13, -8, -37, 21, 75, 26, 53, 0, -84, -4, 20, 79, -51, 46, -87, 2, 47, 22, -9, -44, 12, -57, 12, -7, -2, -10, 65, -81, -63, -87, -45, 67, 59, -3, 30, 57, -37, 50, -6, 42, -6, -45, -78, 19, 0, -4, 63, -3, 70, 68, 88, -64, -40, 77, -6, 41, 34, 25, 20, -26, 77, 90, -38, 91, 29, -59, -101, -7, 21, -78, -23, -37, 66, 5, 66, 63, -59, 14, 70, -75, 45, -20, -52, 94, 6, -80, -53, 71, -78, -50, 81, 76, 29, 58, -90, 55, -67, 49, -15, -91, 27, -72, -78, -77, 22, 92, -82, -9, -48, -6, 36, 35, -35, 48, 38, -68, 8, 55, 5, -78, 7, 14, -65, 7, 34, 62, -57, -27, -70, 10, -11, 63, -24, 40, -21, 59, -31, 67, -62, -40, -19, -102, 87, 54, -80, 59, -30, -15, -16, 72, 66, -26, -38, -10, 44, 15, 60, 38, -94, -75, 88, 6, -67, 77, -19, 17, -60, -2, 14, -56, 79, -3, -51, -44, 64, -38, -70, -40, -49, 97, -49, -56, 34, 37, -59, -61, -29, 97, -35, 7, 77, -63, 75, 1, 63, -88, -55, -60, 43, 41, -12, -19, -100, -9, -49, -68, -66, -26, 40, -82, 29, 59, -62, -98, 11, -80, -63, -18, -6, -88, 90, -73, -76, 64, -13, -14, -10, 95, 49, -87, -84, 55, -7, 66, -70, 40, -45, 57, -4, -45, -28, 75, 73, 1, 35, 64, 37, 60, 34, -74, -97, -8, -16, 70, -70, 31, 60, -99, -18, 33, 52, -16, 63, 18, 93, 25, 78, 15, -41, -29, -26, 10, 93, -9, -92, 53, -20, 47, -77, 59, -71, -41, 50, 12, -41, 7, -51, 79, 32, -76, -56, -51, -85, 0, 26, -6, -58, 59, -62, -21, -6, -7, 11, -89, -67, -19, 48, -20, 40, -78, -6, -74, 89, 0, 42, -14, -74, 28, 24, 75, -56, -82, 71, -82, -28, -66, 69, -99, -73, 21, 50, 85, -28, 98, -44, -18, 36, -4, -54, -85, -74, 46, 78, 11, 83, 86, 24, 74, -78, 101, 17, -32, 48, -5, 58, 61, 74, 12, -8, 12, 48, 74, 60, 43, -79, -12, -33, 74, -13, -73, 17, -27, -7, 48, -41, 74, 38, -117, 89, -88, -22, 73, 28, -98, 47, -34, -55, -24, 54, -18, 2, -1, 91, -9, -58, -38, 76, -50, -15, -33, -90, -45, 32, -26, 3, -88, -99, 5, 34, -78, 62, -89, -54, 65, -61, -59, 41, 29, -13, 59, 79, 93, -1, 8, 85, 69, 14, -57, 93, 29, 75, -79, 75, 31, 30, 61, 58, 43, 72, 97, 13, 7, -91, -47, -54, 47, 62, -3, 85, 86, 75, 94, 95, -99, 93, -97, 86, -29, -1, 10, 28, -30, -21, -52, -24, 73, 26, 63, -6, 41, 49, -17, 86, 78, 52, -94, -1, 71, -58, 71, -48, -38, 82, -67, 73, 73, 82, 82, -80, 90, -70, 34, -100, 111, 46, -75, 0, -76, -24, 41, 52, -88, -39, 4, 39, -66, -37, 72, 3, 60, 21, 87, -44, 6, -65, 92, -73, 31, 13, 67, -66, -61, 9, 54, 41, -34, 4, -28, 8, 34, -85, -82, -62, -53, -55, -19, 78, 54, 72, 100, 19, 51, 36, -7, -86, 65, -62, 14, 11, -90, 57, -39, -59, -57, 2, -58, 40, 73, -85, 38, -9, -2, -65, 26, -19, -15, -51, -93, -59, 63, -84, -53, -7, -10, 54, 60, 88, -83, 28, 3, 15, 4, 13, -88, 39, 2, 9, 59, 73, 32, 16, 0, 20, -39, 21, -29, -52, 66, -30, -76, 75, -17, 1, -27, 59, -75, -11, -24, 23, -17, -22, 84, 64, -82, 61, 13, 28, 17, 85, 95, -22, 14, -18, 58, 78, 18, -14, 62, 54, -68, 77, -83, 8, 2, 73, 79, -25, 18, -54, 75, -4, -93, -4, -9, 89, -11, -44, -34, -86, -30, -2, 85, 54, 85, 83, 84, 82, -63, -40, -14, 36, -83, 23, 82, -36, -35, -56, -66, -112, -24, 11, 48, 22, 8, 43, 89, 35, 11, -12, -15, -83, 68, -45, -61, 31, 81, 77, 46, -27, 66, 14, 38, -99, 93, 1, -60, 33, 50, 88, 58, -54, -9, 3, -84, 38, 9, 51, -81, -33, 62, -59, 54, 11, -25, 51, -11, 17, -25, 55, -36, -47, -69, 18, 2, -1, 43, -18, 48, 36, -46, -19, -31, 67, 64, 99, 9, -22, -20, -8, 87, -17, -101, -94, 31, -52, -17, -1, -64, -60, 62, 80, 41, 34, 34, 86, -85, -95, -13, 29, -11, -50, 61, 52, -54, 7, -26, -69, 22, -28, -13, 117, 52, -94, -70, -8, 108, -70, 40, 67, 18, -23, -49, -33, 64, -96, 80, 44, 51, -43, 29, 73, 23, -50, 56, 38, 87, -11, 46, -81, 14, -63, -77, -16, 78, 90, 51, 50, 83, -11, -86, -26, -80, 85, -38, 68, -47, -34, 2, -56, 32, 40, 25, -16, 47, -13, -42, -1, 99, 67, -55, -68, 54, -10, -80, 50, -79, 100, 73, 78, -69, -67, 34, 22, 72, -96, -35, 72, -78, 80, 57, -49, -7, 42, -87, 5, 67, -59, -90, -73, -5, 20, 13, 47, -44, 81, 40, -45, -85, -8, 18, -11, -5, 29, -82, -49, 50, -95, 22, -52, 40, -42, 67, 61, -28, 73, 27, 38, 42, 74, -27, -97, -35, 91, -75, -91, -66, -77, 74, -95, 42, -7, 43, 78, 92, 107, -49, 77, -84, -33, -82, 92, 42, 89, -17, -27, 39, -61, -95, -43, -28, -33, 22, -21, 41, 67, 80, -15, -49, 59, -30, -21, -78, -11, 19, -17, 83, 9, -30, -101, 47, -55, 96, -68, -20, 48, -9, 68, 85, -80, 71, -17, -47, 50, 42, -40, -13, 102, 62, -31, 0, -50, 45, -79, 57, 93, 80, 11, 76, 72, 109, -48, 12, -62, 38, 69, 41, 8, 85, -35, 40, -91, -81, -26, -82, -21, -15, 83, -37, 86, -44, -34, 75, 42, 4, 73, 40, -4, 6, 80, -101, 46, 33, -62, -49, 70, -82, -31, 37, -2, 21, 82, -47, 32, -37, -37, -45, -49, 34, -107, -29, -34, -96, -102, -1, -99, -62, 53, 64, -79, -52, 59, 72, -92, 44, 71, -70, 38, 27, -59, -43, 50, 73, 76, 68, 26, 44, -97, -16, -6, 28, 21, 40, 49, 6, -86, 17, -74, 57, 35, 80, 41, -7, -1, 90, -66, -2, 11, -26, 76, 43, 72, -76, -43, -51, -4, 35, -23, 76, -64, 13, 25, 74, -45, -56, 
  83, 77, 24, 6, -15, -4, 32, 19, 18, 5, 57, -70, -11, 86, 23, -96, -55, 105, 52, -104, 24, 60, -51, -36, -105, 51, 82, -36, 32, 30, 65, -7, 27, 72, 80, 62, 47, 70, -40, 91, 48, -53, 28, 14, 13, 102, -23, -66, 68, -16, -50, -30, 81, -62, 49, 46, 40, 23, -57, 63, 9, -46, 63, -21, 81, -64, 51, 59, 72, -88, -67, 19, -34, 41, 85, 63, -7, 33, 47, -56, 112, 44, 1, -69, -61, 45, 69, 12, -66, 35, -44, -11, -72, -94, 27, -5, -5, -107, 66, -79, -105, -68, -64, 26, -63, -3, 53, -62, 74, 67, -58, -15, 46, 61, -78, 61, -82, 12, -68, 30, 72, 3, -39, -40, 40, -28, 41, -5, -20, -53, 78, 61, -16, -80, -61, 54, 3, 58, 20, -82, -7, 17, 2, -69, -65, -44, 33, -83, -2, 78, -68, -52, 19, -40, -22, -66, 35, -45, -76, 89, -25, -23, 59, -85, -68, 86, -102, 19, -64, -48, -62, 38, -6, -19, 11, 21, 68, -33, -65, 77, 19, -60, 29, 4, -52, -81, 66, 63, -51, -87, -50, 80, 66, 68, -30, 70, -71, 67, 30, 68, 32, 98, -38, 55, 16, 42, 39, -47, 111, -79, -23, -69, 14, -63, 12, -64, 85, 4, -4, -1, -86, 19, 8, -31, -80, -56, 19, 78, -111, -44, 65, -39, -112, -35, 24, -69, -47, -52, -28, -66, -86, -83, 43, -50, 8, 82, -40, -49, -51, 72, 100, -15, 49, 39, 59, 46, 28, 35, -41, 31, -27, 70, 3, -29, -53, -54, -18, -96, -1, 13, 5, 76, -25, 57, 3, 37, -36, 41, 26, 5, -3, -66, 57, -100, 101, -45, -42, 4, 15, 29, -45, 51, -90, 72, -93, -63, 69, -97, -59, 10, -59, 32, -84, -86, 29, -67, -9, 56, 66, 31, -78, -35, 75, -47, 30, 72, -53, 71, 87, 82, -90, -93, 74, 82, -100, -36, -85, 1, 37, -61, -10, 107, 76, -13, 67, -52, 34, 29, -66, -42, 38, -76, -8, -61, -39, -7, 30, -29, -103, -28, 7, 56, -66, -78, 64, -29, 41, -17, 20, -10, -13, 8, 7, -6, -75, -84, 81, -58, 94, -69, -28, 43, -78, -22, 87, 13, -70, -80, 47, 95, 47, -43, -33, 42, -49, -65, 69, -72, 78, -14, 0, -14, -24, 31, -27, 62, -33, -54, 54, -64, -30, -24, 54, -77, 49, 109, 7, 72, -6, -46, 74, -41, 1, -1, 47, -24, 58, -61, -79, -59, 47, 74, 23, 13, 90, 94, 89, 97, -37, 87, -34, -52, 8, 12, 3, -21, 74, 1, 17, -86, -21, 42, -48, 69, -39, 58, -55, -90, 68, 25, 50, 50, -64, -7, 43, 77, -17, -95, 28, 43, -16, 52, 64, 41, 41, -71, -99, 79, 68, -37, -23, 35, 76, 14, 20, 93, 57, 0, -40, -52, -71, 52, -3, 84, -55, 85, 48, 12, 1, -43, -74, -47, -70, 98, -13, -101, 50, -91, 11, -70, 66, 82, -21, 62, -18, -27, 62, 24, 83, -58, 8, -68, 75, -57, 17, 51, 73, -10, 63, 10, 77, 34, -13, -45, -47, 3, -60, -85, -86, -8, -53, -94, 28, -67, -88, -70, -66, -81, 71, -83, -58, -13, 74, 58, 32, -54, 88, -84, -19, 45, 23, 40, -75, 73, -80, 33, -86, 22, 10, 63, 28, -1, -4, -14, 81, -82, 49, -50, 53, 49, -52, 40, -94, -70, 24, -37, -60, -42, -43, 54, 44, 9, 38, -28, 74, -47, 54, -37, -32, 86, 35, 52, -54, 58, -10, -65, 5, -100, -6, -44, 50, 19, -31, 22, 53, -47, -67, 46, -78, 37, 47, -18, 88, 23, 4, -39, -65, -76, -99, 9, 22, -40, -12, -56, 28, 19, 11, -84, 9, -76, -74, -16, -8, -94, 2, -67, -63, 77, -43, 81, 20, -5, -47, -67, 48, 64, -26, 8, -52, -17, -27, 40, 63, 31, 23, 25, 37, 52, -94, -66, 7, -32, 55, 81, -59, 30, 14, 74, 70, -87, -95, -53, 83, 28, 72, 64, -59, 59, 41, 61, -28, 95, -34, -64, 47, 13, -46, 86, -26, -73, 33, 90, -32, 59, 87, 32, 16, 16, -68, 3, 73, 56, 19, 85, 109, -46, 8, 30, 73, -55, -61, 15, -14, 54, 9, -94, 18, 11, -14, -80, -59, 77, 1, 14, -25, -3, -109, 23, 5, -46, -25, -39, 100, 98, 8, -38, -99, 44, -31, -68, -80, 54, 57, 55, -64, -79, 14, -32, -27, 20, 68, -14, 37, 37, 44, -81, 4, -34, 10, -81, -34, 89, 41, 23, 97, 47, 53, 42, 30, 48, 69, 25, 71, 93, -90, -43, 53, 20, -25, 26, 74, 73, 35, 8, -4, 37, 47, -74, 19, -11, -30, 74, 41, -71, 6, -88, 44, 80, 108, -23, -82, 63, 13, 32, 77, -91, 23, 65, 51, -74, 65, -47, 43, 10, 77, -56, 83, 73, -42, -31, 31, 25, 44, 61, 48, 29, -76, 88, 10, -84, 4, 3, -97, 9, -18, -60, 19, 63, -35, 43, 87, 73, 55, -34, -95, -65, -18, -14, 51, -100, 59, -112, 19, 63, -14, -15, -51, 72, -97, 33, -93, 89, 102, -89, 18, 72, 73, -40, -28, 63, -47, 71, 20, 25, 72, 70, -52, 75, -85, 16, -11, 32, -35, 81, 55, -31, 17, 79, 67, 72, -69, -77, -107, 36, -38, -71, -4, -9, -58, -10, -2, 4, -19, 8, 17, -16, 80, 59, 23, 8, -61, 3, 53, 84, -36, -60, -22, -74, 15, 72, -104, -44, -4, -52, -99, 31, 70, -80, -90, -65, 18, 90, -93, -38, 96, -27, -90, -32, -22, -25, 85, -46, 89, 50, -32, 64, -102, -37, 6, -81, -2, -11, 70, 68, -104, -70, -4, -47, -1, 95, 2, -12, -80, -18, 100, 30, 54, 2, 42, -2, 16, 21, 1, -53, -11, -49, -28, 35, -15, -6, 55, -4, -28, 42, -56, -55, -79, -45, 78, 66, -102, -68, -70, -62, -99, 76, 74, -66, 38, -66, -66, -17, 43, -34, 93, 71, 21, -74, -68, -44, -18, 55, 48, 40, 68, -54, 12, 94, 47, -17, 35, 44, 98, 78, 87, 86, -90, -25, 54, 67, -11, -42, -46, -54, -94, -80, -30, -64, 34, 27, -3, 77, 85, 39, -32, 70, -25, -12, -75, 23, 20, -16, 65, 74, 26, 64, -45, 41, 70, -58, 110, 48, 21, -51, -28, -29, -46, 25, 87, 98, -60, 69, 75, -48, -83, -75, 83, -60, 14, -84, -59, -43, -69, 20, 68, -68, 96, 95, 62, -47, 18, -20, 28, 79, -92, -36, -36, 1, 71, 7, 49, 35, 54, 82, 80, -50, -60, 40, 22, -19, 21, -81, -78, 30, 7, 111, -1, -76, 92, 44, 4, 38, 43, -61, 9, -49, 22, 43, 10, 95, 64, 74, -24, 4, -67, -73, -64, 72, -76, 12, -41, 10, -17, -86, 50, -12, -28, -57, 20, 52, 40, 55, 36, -49, -51, -5, 54, -13, -33, -82, 84, -5, -38, 44, -85, 21, -49, 79, -84, 59, 13, -64, -98, -63, -65, 68, -48, 77, 18, 73, 73, -92, 111, -78, -6, 73, -37, -64, -25, -19, -3, 23, 69, 59, 72, -59, -63, 64, 11, 71, -59, 4, -1, 57, -28, -8, -52, -56, -4, -2, 31, -10, -39, -60, 78, 0, -18, -43, 114, -12, -50, -63, 32, 54, 4, 39, 59, -109, -88, 34, 51, -41, 94, 10, -7, 46, -59, 40, 6, 14, 92, 42, -52, -1, -44, -13, -37, -3, -88, 91, 38, 55, 7, 28, 58, -51, -41, 79, -58, -51, 68, 15, 69, -8, -93, 105, 55, 12, -24, 94, 27, -56, 43, -95, 66, -18, 55, -21, 3, 68, 
  40, 5, -32, 64, 87, 80, 47, -13, 5, -50, 45, 76, 40, -14, 73, 51, -21, 68, -91, -97, -18, -10, 91, -59, -4, -41, 34, -98, 38, 4, 49, -48, 46, -43, 1, -43, 83, 60, 7, -67, -6, -18, -67, 60, 67, 32, 12, 44, 21, -40, -25, -57, -16, 16, 68, -79, -30, 25, 29, 8, -65, -51, -44, 76, 6, -60, -31, 57, 3, -25, -6, 106, -44, -37, -73, -45, 10, -69, -24, 39, 109, 7, 3, -23, -76, -13, -11, -3, 64, 9, -69, -101, -1, 76, -46, -77, -5, -39, 73, -80, 4, -50, -38, 54, 69, 74, -74, -86, -38, -63, 49, -65, -25, 62, 15, -52, 25, 6, 18, -69, -58, -32, -30, -11, -67, 102, 86, -26, 39, -88, 96, -108, 79, -59, 23, 18, 31, -25, -22, 57, -97, 37, 35, 58, -38, 25, 40, 10, -25, -72, -5, -101, -72, -5, -7, -22, 39, 38, -67, 54, -24, 85, -54, 90, -42, 25, -5, 50, -38, -107, -52, -57, -59, -12, -85, 40, 40, -2, -31, -82, 90, -59, -43, 12, 45, -45, -59, 6, 65, 110, 98, 49, 19, -54, 47, 26, -44, -89, -90, -58, -21, -54, -81, -57, -71, 76, 25, -25, -100, 41, 21, -58, 28, -9, 84, 34, -81, -73, 54, 41, 5, 74, -20, 30, 23, -17, 57, 25, -48, -32, 86, -8, 40, 54, 89, 69, 10, 49, 88, 55, 11, 43, 92, -12, -34, 92, -37, -17, -52, -5, -75, -72, -33, 24, -18, -5, -27, 85, 4, 42, 53, 17, -34, 62, 1, -42, -40, -30, -51, 116, 14, 78, 36, 70, -56, -64, -80, 82, -42, 41, -64, 28, -42, -101, -76, 66, 49, -34, -57, 59, -66, 63, 16, 92, -54, 20, 103, -18, 46, -8, 40, -8, 3, -103, 59, -22, 84, -79, -4, 30, 48, -34, -11, -70, 95, -74, -44, -83, 96, 31, 10, -54, 57, -67, -33, 92, -3, -76, -78, 32, 73, 77, -20, 4, -28, -22, -3, -33, 56, 41, 59, 45, 78, -85, 61, 50, -8, 62, -5, 97, 45, -57, -106, -56, -3, -105, -66, -95, 69, -44, 41, 89, 45, -14, 15, 31, 30, -61, 20, 96, -2, -45, 88, -10, 15, 38, -65, 16, 11, -89, -35, 45, 3, -41, 77, -59, 4, -44, -26, 17, -36, 56, 62, -57, -53, -12, -65, 61, -47, -87, 44, 75, -3, 79, 35, -28, 19, 92, 31, 44, 13, -89, 88, 113, 14, 69, 93, -86, -65, -58, -56, 76, 5, -76, -48, -4, -8, -83, 71, 13, -27, -88, 88, 21, -84, -3, -93, -38, 12, 6, -54, -47, -4, -1, 10, -70, 13, -82, 37, -94, -86, -103, -60, 24, -28, -54, -36, -24, 16, -80, -30, -24, 16, -65, 50, -30, -84, 18, -72, 29, -3, 14, -36, 28, -97, 23, 96, 46, 87, 30, -14, 77, -62, -48, -76, 65, 82, -83, -70, -70, -36, 36, -89, -73, 26, 85, 30, 103, -65, -12, 14, -43, -38, 81, 20, 47, -84, -53, -1, 22, -46, 90, -79, -66, -12, -48, -6, -33, -27, -5, 31, -2, 89, 54, 25, -54, 61, -43, -19, -89, 7, -31, 83, -88, 29, 70, 36, 54, -76, -95, -76, -23, -57, 44, 49, 41, -91, 99, -57, -63, 87, -5, 17, 6, -53, 44, -34, -79, 69, -76, 1, -13, 86, 85, 24, 86, 80, -112, 29, -117, 38, 51, 36, 84, -56, 29, 50, -35, 88, 47, 69, 24, -7, 2, 113, -97, -52, 51, -41, 41, 74, -92, -5, 79, -62, 70, -16, 98, -46, -61, 24, -84, 64, -38, -14, 19, -57, -69, -71, -56, -28, 58, 85, 10, 26, 75, 1, -35, -66, -29, -26, -8, -10, -44, 102, 56, -27, 90, -91, -45, 68, 84, 67, -61, -11, 92, -6, 16, -85, -35, -3, 80, 26, -96, -28, 92, -34, -25, -49, -44, -22, -56, -77, 40, 56, -43, 50, -30, 0, -75, 13, -94, -19, -87, 62, 98, -80, 16, 28, 74, 6, 12, -59, -99, 26, 97, 116, -33, -4, 53, -17, 37, 54, -37, 22, -65, -2, -61, 35, 80, -56, 79, 7, 56, 72, 83, -56, -19, 44, -62, 73, 58, 68, -87, -34, 72, -4, -70, 22, 9, -109, -29, 4, -29, -1, 73, -22, 78, -99, -62, 70, 0, 30, 6, 71, 32, -97, 22, -88, 45, -36, 66, 26, -18, 52, 51, 34, -81, 51, 93, -25, -58, 71, 62, 10, -19, 17, -63, 27, 47, -42, 91, 60, -9, 10, 49, -71, -16, 18, 64, -97, -29, 12, -90, -53, 48, 59, -23, -9, -10, 94, -5, 75, 22, 66, 42, 18, -45, -99, 57, 86, 20, -4, 35, -38, -73, 0, -21, 74, 5, -75, 68, 12, 84, -60, -7, -44, -38, -29, 69, -68, -106, 31, 44, -61, -44, 91, -25, -19, 35, -8, 70, 72, -8, 22, -20, 68, 36, 24, -8, 80, 20, -41, 77, 71, 66, -82, -96, -5, -18, -78, 37, -13, 93, -62, -55, 82, 9, 110, -74, -68, 70, -18, -49, -46, -92, 34, 5, -3, -50, -33, 14, 43, 64, -30, -36, -25, 72, 75, -57, -27, 30, 21, 93, -20, -57, -57, -7, 4, 102, 77, 30, -72, -16, 62, 103, 0, -27, -74, -75, 68, 76, -67, 28, 65, 17, 12, 54, 22, -33, 64, 83, 86, 19, 8, -4, -50, -61, 77, 20, 62, 25, 19, -6, 6, -10, 46, -41, 41, -31, 11, 28, 2, 26, -109, 89, 103, 41, 44, -1, 21, 27, 78, 76, 73, 22, -49, 0, 47, 58, 13, 12, -105, 83, 97, -87, -49, 32, -29, -114, -38, 18, 43, 35, -81, -46, -59, 2, -19, 63, -58, 76, 1, 30, 83, 26, 91, 63, 81, 101, 31, 61, 19, -21, -81, 24, -40, 38, 83, -95, 109, -39, 114, -6, -41, -6, -95, 33, -63, -23, -39, 53, 9, -52, 88, 63, 76, -4, 73, -43, -18, 49, 91, -43, 78, 72, 54, 58, -52, -75, 10, -12, -21, 48, 11, 64, -87, -42, -12, 4, -48, -94, 19, -30, -64, 84, -57, -42, 72, -50, -19, -5, 61, -25, 34, 44, -22, -49, -6, 31, 47, 100, 83, 93, -92, 7, 72, -45, -38, 81, -83, -74, 10, 79, 49, -14, 30, -86, 18, -78, 57, 96, 10, 80, -49, 41, 38, 37, 56, -29, -12, 58, 58, 37, -70, -93, 86, -47, 30, 76, -95, -47, 69, 70, -24, -56, 10, -43, 62, -85, 71, 25, 9, -87, -74, 54, 71, 73, -53, 86, -90, 6, 20, 33, 44, 7, 67, 11, -77, -38, 104, -35, -5, 66, 90, 3, -60, -2, -59, -58, 54, -94, 42, 36, 74, 59, -39, -75, 36, -30, -7, 66, 17, 14, 14, -2, -50, 7, 20, -95, -39, -36, 72, 48, 42, -31, 62, 94, 27, 99, 97, -22, -57, -17, -1, 7, 72, 6, -9, -49, 75, 7, 42, 88, 81, 15, -31, 15, 36, -77, 6, -53, -97, -20, 21, 87, -6, -29, 57, 59, -71, -14, 22, 9, 48, -79, 2, 82, 60, -68, -2, 5, 96, 92, 82, 82, -86, -54, 0, -11, -2, 24, -95, 30, 37, -44, -39, -80, 16, 21, 43, -30, 2, -53, -7, -47, 2, 71, -82, 111, -52, -22, -33, -27, -85, -22, -97, 67, -57, -77, -13, 92, 94, -40, 65, -87, 86, 48, 75, 6, -49, 13, -12, 91, -30, -29, 60, -86, 22, -100, 14, 19, -58, 45, -38, -14, -33, 60, 50, -6, 65, 9, 23, -43, -56, -72, -66, 55, 28, 31, -27, -62, 93, 65, 119, 24, 18, -28, 69, 83, -56, 64, 32, -1, -43, -70, -8, -27, -66, 96, 
  82, 89, 62, 53, -79, -66, 60, 30, 62, 64, 51, 49, 59, 67, -84, -57, 32, 83, 100, -59, -109, 83, -49, 3, 34, 72, 70, -118, 39, 25, 18, 7, 104, 44, -14, 105, -74, -77, -53, -21, -12, 17, -40, -93, -54, -9, 23, -46, 24, 71, 23, 85, 71, 67, 7, -76, 19, 37, -32, -46, 17, -37, -71, -33, 37, -115, -87, -76, 37, -67, -7, 101, -81, -60, 8, 42, 67, 19, -14, -30, 33, 80, 85, -57, 42, -7, -35, -25, 42, 96, 82, 53, -17, -42, -71, 35, -69, -63, 54, -23, -48, 24, -90, 3, -41, 7, -9, -1, -93, 0, 47, -20, 38, -79, 15, -69, 22, -74, 7, 24, 30, 50, -16, 101, -68, 23, -22, -7, -43, 55, -1, 41, -21, 67, 8, -9, -65, -6, -60, -61, 2, 9, -77, -52, -86, -76, 79, -18, -2, 3, 53, 84, 16, 4, -86, 9, 8, 46, -27, 66, -85, -33, 7, 44, -47, 75, -20, 86, 26, -24, 9, -43, 68, -9, -7, 87, -25, -57, -73, 18, 10, 6, -76, 65, 9, -1, -63, -30, -50, -46, 88, -30, -101, 25, -26, 6, 88, 66, -58, 1, 8, -18, -7, 46, 45, -97, 68, -63, 58, -86, 36, 71, 14, 39, 65, -70, 43, 79, -93, 85, -22, -56, -5, 48, 84, -33, -41, -62, 16, 30, 24, 23, -53, -32, -45, -35, -21, -78, 115, 83, 28, -32, 23, -67, -44, 121, -60, 74, 3, -54, -18, -77, -79, 29, -7, -38, -40, -50, 78, -33, 92, -49, 27, -42, -13, -80, -46, 50, 13, 44, -51, 58, 54, -52, -91, 84, 12, -16, -13, -67, 88, 80, 29, 31, -33, 7, 58, -61, -50, -88, 50, 74, 69, 24, -22, 68, -3, -61, 47, 42, -78, -29, 36, 10, 13, -87, -74, 93, -59, 35, -12, -36, 27, 71, 60, -4, 72, -51, 94, 41, 82, 38, 15, 7, 28, -90, 69, -55, 26, 76, 29, 7, 84, 27, -47, -77, -55, -81, 19, 65, 54, -76, -90, 98, -8, 68, 77, 27, 23, 119, -49, 67, 60, -19, -92, -31, -69, -47, 82, 70, 85, -55, 89, 72, 85, 39, -66, 80, -37, 73, -36, -84, 17, -45, -50, 15, 67, 33, 46, 23, -74, -4, -32, 63, 47, -41, 18, -89, 80, -27, 103, 63, -7, 8, 38, 12, 69, -39, -81, -61, -38, -101, 57, -72, -2, 36, -80, -31, -58, 56, -58, -42, 53, -46, -2, -14, 6, -107, 33, 11, 53, -77, 50, 85, -73, 41, -70, 80, -51, 5, -9, -40, -63, 73, 77, -3, -58, 55, 46, -49, 1, -92, -70, 48, -62, -73, -60, -69, -25, 64, -20, 87, -3, -14, 73, 116, 24, -69, 18, -52, 3, 6, 37, 63, -11, 62, -63, 3, -66, -86, -5, -91, 15, 34, -28, -96, -45, 120, -75, -1, -28, -9, -92, -80, -72, 10, -21, 22, -48, -19, -11, 13, 82, -14, -6, 64, 31, 21, 12, -86, 37, -40, -51, -14, 93, 47, -2, 8, 46, 21, 87, 65, 37, 67, -18, -37, -63, -51, -29, 51, 15, 47, 39, -26, 24, -41, 40, 16, 38, 50, -30, 11, -51, 103, -74, 51, 54, -109, -51, 72, 22, -56, 50, 15, 76, 72, -2, -43, 76, 22, -90, 114, -50, -32, 29, 14, 9, -79, -2, -51, -42, -71, 15, 71, -71, -45, 28, -64, -70, -53, -55, -80, 38, 37, 24, 28, 102, 11, 24, -13, 0, -58, -1, -13, -5, 97, -84, -38, -6, -2, 61, -4, 17, 64, 20, 75, 103, -11, 41, 91, 109, 67, -57, -64, 75, -27, 0, -88, -46, -62, 61, -92, 67, -86, 14, 61, 102, 60, -20, -41, 50, 11, 74, 56, 40, 9, -96, -52, 61, 41, 47, -94, -59, 47, 93, 25, -64, 64, 25, 86, 17, 27, 56, 30, 19, 96, -16, 28, -46, 38, -27, 42, 1, 23, 17, -13, 65, 61, 17, -8, 12, -33, -92, 48, -67, -44, 81, -80, 19, 77, -3, -14, -53, -55, -67, -56, 37, 5, -43, -15, 54, 56, -82, 104, 4, 98, -24, 23, 85, 39, -8, -6, -22, -91, 44, 92, 27, -13, -96, -14, -33, 29, -81, 28, 37, -94, -1, -16, -17, -34, 83, -45, 4, -97, 27, 13, 13, 46, 19, 23, 15, -84, 77, 57, -58, -36, -22, -62, 17, 15, -52, 11, -67, -57, -113, 60, -77, -2, -15, 26, 46, 58, 89, -12, 98, -72, 95, -64, 84, -65, 85, 85, -89, 75, 4, 71, 67, 31, -57, -23, -46, -30, -18, 95, -52, 49, 66, 2, -64, 9, 32, -31, 17, -64, 75, -7, 4, -47, 46, -4, -98, 5, -30, -71, -24, 24, -43, -36, -3, 103, 7, -21, 90, 58, -28, 7, 90, -4, -18, 66, 25, -16, -54, -44, -46, 23, 55, -99, 9, -14, 67, 73, -69, -17, 40, 28, 11, 56, -33, 47, 50, -102, 81, 8, 43, -58, -97, 1, -113, -110, 84, -53, 46, 54, -52, 65, 33, -46, 73, -72, 5, -65, -30, 48, 66, 11, 40, 66, -54, 74, 18, 19, -9, 73, 9, 80, -90, -9, -69, 101, 51, -5, 66, -94, -79, -109, -13, 0, -24, 54, -71, 96, 79, -7, -57, 106, -67, -72, -65, -50, 101, 37, 93, 64, 106, -70, 119, -88, -63, -24, -17, 77, 52, 81, 96, 91, 0, 56, -18, -60, 87, -57, 23, -37, -84, 3, 85, -58, -48, 92, 86, 87, 2, -35, -45, 83, -18, 9, -61, -43, -76, -42, -38, -45, 73, 54, 74, -28, -23, 37, 10, -100, 83, 107, 15, -25, 53, -54, 45, 78, 33, 30, -5, 27, 24, -32, 22, 72, -69, -35, -79, -40, -37, -46, -78, -52, 13, 59, -82, -62, -65, -83, -84, 40, -40, -54, 9, -53, 48, 90, -50, 36, -76, 59, 31, 17, 89, 14, -44, 29, -81, -43, -27, 19, -98, 24, 98, -20, 60, 3, 24, 43, -36, 64, 46, 26, 41, 79, -22, 38, -101, 8, -113, 9, -77, 65, -93, -58, -80, -78, 58, -35, -58, -49, -47, 67, 58, 20, 21, 71, 77, 26, -94, -63, 70, -38, -14, -82, 93, -27, -35, 10, -36, -28, 10, -97, -33, -33, -105, -4, -77, 96, 73, -51, 76, -58, 7, -12, 66, 29, -51, -15, 87, 52, 89, 76, -52, 27, 67, -26, -52, 59, 59, -44, -65, -61, -40, -13, 53, -72, 100, 12, 86, 92, -21, 62, 77, 103, -27, -50, 6, 3, -28, -76, -74, -25, -20, -91, 40, -64, -87, -42, 79, 92, -68, -47, -47, 10, -35, -92, 52, 31, -54, 15, -19, -41, -58, 6, -3, 29, -85, 24, 28, 65, -10, -62, -31, -75, -40, 79, 93, 26, -97, -88, -94, 44, 19, -5, -85, 83, -34, -4, -56, 57, -46, -6, 6, -80, -23, -3, -21, -3, 32, 77, -14, 31, 80, -85, 44, -97, 98, -64, -6, -78, -57, 50, -68, -39, 88, 32, 70, 82, 18, 80, -60, -87, 80, 62, 6, 79, -39, 30, -30, -77, 7, 15, 26, 15, -100, -96, 65, -25, 80, -69, -97, 45, -21, 64, 87, -104, 13, -58, 82, -81, 34, 42, 95, 5, 94, -13, -81, 46, -32, 54, -85, 19, 4, -86, -75, -88, -68, 45, -42, 88, 105, 23, 39, 59, 44, 77, 114, -33, -81, -18, -12, -6, -30, 30, -32, 37, -29, -30, -73, 74, 18, -17, 20, 99, 11, -24, -26, 32, -53, -60, 48, -36, 44, -24, -105, 19, 71, -88, -19, 8, -83, 29, 69, 77, 69, 74, 6, 5, 25, -12, 15, 5, -23, 64, 24, 2, 12, 121, -12, 43, 99, -78, 52, 40, -6, 0, 
  31, -48, 43, 7, -44, -104, -42, -43, 113, 85, -66, -69, 75, 48, -69, 22, -48, 82, 81, -87, -52, -4, -29, 20, 27, -15, 105, -64, 61, -127, 39, -2, -19, -73, -64, 118, -35, -26, 76, -36, -7, 69, -51, -29, -65, 80, -92, -11, 81, -24, 110, -70, 48, -54, -83, 2, 104, -56, -101, 49, -89, -55, -78, 25, 37, -64, 29, -20, -6, -48, 83, 56, 9, 4, -82, 90, 73, 19, -36, -62, -38, -16, 63, 33, -78, 21, -50, -98, 89, -3, 40, -87, 66, 49, 6, 27, -34, -110, 76, -76, -64, -54, -7, 4, 9, -11, -70, -35, -57, 34, 78, 109, -15, -82, -49, 4, -103, -81, -45, -74, 52, -87, -54, -61, -40, 13, -69, -9, -90, 104, 58, -71, -104, -3, 47, -77, -37, -12, -2, -94, -83, -24, 28, -29, 6, 70, 17, -3, 52, 113, -32, -20, -104, 14, -37, 26, 50, -84, -86, 39, 71, -10, 34, 68, 47, -86, -25, -53, 36, 51, 6, -25, -6, 41, 76, 88, -80, 56, 38, 96, 92, -78, -92, -60, -84, 56, 69, 86, -31, -70, 4, 47, -72, 94, -72, -65, -1, 19, -64, 79, -36, 73, -4, 16, -40, 36, -27, -71, 81, 61, -38, 86, -40, 13, -90, -40, 83, -18, -52, -8, -8, 5, 43, 85, 13, -40, -33, -78, -31, 20, -43, -81, -70, 33, 0, -55, 101, 77, -35, -45, -93, -20, 76, -81, -4, -50, -75, -1, 43, -38, -81, -46, -70, 84, -92, -20, -63, -60, -23, -78, 57, 0, 12, -51, 98, 54, -94, -71, -17, -94, -28, 75, 63, -82, 109, -40, 19, -71, 73, 86, -93, -64, -23, 46, 17, 88, -9, -33, 29, -18, -34, -76, -49, 65, 12, 63, -66, 28, 41, 35, -64, -76, -89, -68, -37, 52, 56, -34, -95, -81, -23, -43, -46, 28, 68, -50, -15, 37, 89, -60, 21, 19, 103, 42, -22, -32, -88, 40, 43, -88, -46, -77, -17, -15, -77, -27, -43, -100, 67, -63, -71, -64, 59, 32, -50, -100, 101, -99, -61, 74, -15, 112, 81, 71, -62, -18, 77, -2, 34, -99, 64, 64, -44, 86, 42, -45, 75, 19, -44, 59, 20, -9, -53, 103, 31, 4, 65, -38, -41, 29, -38, 54, 79, -54, -7, -69, 55, -8, -71, -67, -21, -28, -71, 51, 13, 85, 109, 105, -54, 110, 65, 66, -81, 51, 56, 8, -59, -73, -56, -29, -64, -38, -6, 27, 21, -27, 17, 33, 89, -95, -81, 96, -15, 6, -82, -40, 57, -89, 81, 111, -73, 25, 53, -14, 60, 4, 52, -4, 96, -46, 87, 62, -62, 85, 22, 96, -38, 16, 82, 41, -55, 80, -6, -68, -76, 2, 36, -39, -63, -94, 96, -36, -39, 13, 52, 32, -68, 61, 9, 55, -43, -14, 20, -2, -57, 106, 61, -37, -58, -36, -30, 22, -1, -23, -3, 43, 4, 6, 41, -59, 68, -94, -5, 101, -32, 14, -34, 67, 2, 3, 34, 83, -33, -97, 51, -92, 8, 13, 13, 78, 16, -71, -68, -8, 73, 2, -6, -30, -12, -83, -77, 77, -49, -18, 15, -9, 31, -49, 66, 87, 99, -32, 53, 31, 87, -13, 71, -72, 24, 107, -76, -28, -45, 61, 94, -60, -80, -25, 74, 55, 49, -98, 43, -4, 38, -73, 12, 18, -36, -41, -70, -12, 97, -7, -104, -21, -61, 73, -11, -61, -32, 7, 6, 48, -5, 55, 77, 75, -20, 53, 36, -63, 104, 82, -33, -74, 7, 31, -5, 64, 28, 32, 61, -49, -32, 1, 51, -50, -59, 27, -32, 63, 24, -64, 97, -36, 52, 11, -76, -20, 90, 79, 91, 89, 93, 58, 87, 57, 41, 2, 106, 90, -36, 1, -49, -29, 67, -65, 77, 77, -6, 48, -81, -68, -62, 36, 42, -99, -34, 16, -26, -76, -63, 75, -27, 5, -54, 76, 62, 109, 93, 44, 56, -9, -37, 18, 42, -77, 53, 17, -12, -102, -23, 101, 5, 72, -25, -92, -51, 94, -72, 87, 24, -26, -30, -97, -93, -108, -49, -48, -72, -3, 47, 37, 89, -68, -55, -71, 102, -60, 90, -8, 27, 48, -19, -54, -54, -74, 65, -3, 25, 53, -4, 10, 97, -25, -73, 81, -89, -29, 56, -70, -27, 40, -72, -26, -76, -27, 29, 29, 0, 73, -6, 42, 62, 91, 2, -25, -28, 41, 16, -22, -5, 49, 62, -47, -57, -84, -69, 20, 18, 68, -21, -9, 58, 30, 19, -73, -55, -15, -54, -91, -1, -29, -24, 63, -1, -94, 67, 80, -71, -66, -26, -30, -69, 101, -60, -96, 100, -88, -43, -22, -27, 79, 16, 109, -65, 59, 20, 2, -19, 25, 70, -83, -10, 55, 28, -17, -31, -81, 68, 59, -42, 33, 84, -9, 63, -46, 18, -33, 80, 92, -3, -75, 29, 13, -55, -101, 55, -55, 8, -81, 63, 39, -40, -100, -62, -20, 63, 47, -97, -74, -3, 38, 52, 25, -10, 101, 68, -107, 59, 34, 73, 81, 67, -9, 10, -68, 0, -88, 20, -43, 40, 51, 12, 55, -82, 24, 54, -99, 70, 31, -53, -36, -34, 34, -97, 8, -72, 96, -50, 63, -75, -40, 57, -79, -32, 96, -38, -12, -66, -44, 50, 94, 85, 18, -42, 41, 67, -46, 16, -38, 47, -52, 108, -53, -1, 49, 7, -98, -40, -104, 34, -9, 53, -19, -24, -96, -70, -49, -83, -26, 102, -34, 32, -65, 69, -3, 13, 85, 112, 57, 39, -27, 45, -25, 12, 44, -2, 3, -1, -36, 33, 66, 64, -55, -24, 114, -80, 40, 23, 82, -40, -24, 64, -10, -42, 56, -49, 84, -53, -52, 96, -14, -47, 44, -16, -34, -34, -45, -3, -73, 64, -18, 68, 56, 13, -40, -82, 83, 35, 97, 47, -28, 58, 68, -29, -44, 1, 16, -70, -94, 69, 100, -48, -25, 16, 93, 103, 67, -10, 91, 85, -9, -2, -66, 65, 57, 88, 76, -39, 23, 49, -5, 5, 91, 106, 11, -16, -98, 65, -50, -60, 91, -42, 14, -9, 41, 12, 43, 32, -83, -69, -88, 86, -1, 70, -1, 6, -27, -31, 78, 75, -77, 91, -3, -73, -77, 48, -102, -106, -85, 63, 61, 69, -55, 43, 58, -70, 6, 13, -63, 38, -65, -51, -67, 27, 52, 89, -20, 104, 57, -74, 66, -8, -32, 30, 83, 68, 25, -2, 87, -81, 48, -84, 7, -42, -43, -72, 19, -8, -12, 52, 45, -53, 73, -88, 9, 59, -104, -8, 56, -60, 40, -83, -26, -53, 18, 33, 16, -7, 13, 52, 38, 84, -99, 103, 56, 63, -43, -74, -34, -6, 85, 18, 30, -89, 14, 64, 55, -45, -56, 40, 15, 81, 16, -37, 38, 14, -9, 6, -29, 74, -84, -65, -44, 51, -59, 50, -63, 22, -11, -57, 40, -22, -32, -11, -35, 28, -26, 39, -53, 49, -45, 33, -58, 7, -96, 89, 45, 9, -27, -62, -4, 8, -71, 49, -6, 51, -51, 83, 29, -5, -53, 38, -77, -12, -13, 37, 6, 12, 60, -66, -70, 89, -77, -28, -34, 26, 59, -47, -105, 104, 44, 109, -57, -81, 41, 91, 33, 75, -85, -61, 86, 8, 36, 95, 6, 38, -22, -25, -82, -54, 40, -36, -45, 59, 85, -80, -35, -41, 15, 108, -32, 47, -7, -17, 31, -73, 20, -30, -61, -13, 56, -72, -74, -72, 15, -39, -15, 53, 93, 83, -14, -47, 12, -94, -72, -22, -81, 52, 63, -7, -65, -42, 46, -50, 22, 42, -47, -21, -36, 36, -70, 87, 39, -44, -9, 53, 80, -99, -21, 62, 63, 79, 49, 73, 56, 17, 42, -9, 83, 64, -77, 22, 75, 77, -52, -30, 89, 
  93, 20, 63, 101, 71, -47, -86, -47, -30, -9, 15, 26, -49, 65, 55, 67, -41, 73, 76, 57, 104, -57, -97, 57, 1, 50, -4, -32, -8, -47, -84, -76, 107, 35, 40, -2, -7, -14, -43, -28, -83, -36, 76, -79, 1, 0, 51, -40, 47, 79, 31, 85, -69, 8, -84, -79, 49, -46, 6, -47, 60, -104, -39, 103, 27, 63, 62, -35, -5, -2, -46, -84, -13, -67, -67, 31, 100, 38, 90, 73, 28, 58, 84, 38, 38, 17, -76, 39, 16, 58, 97, -28, 79, 84, -38, 100, -52, 50, -11, 25, 75, 48, -34, -67, 17, 51, 61, 54, 25, 64, 17, 52, -76, 28, 50, -55, 96, 60, 34, -42, -18, 62, 63, 57, 51, -88, -41, 87, 37, 21, -5, 17, 34, 12, 35, 32, 29, -58, 23, -68, 92, -26, 35, 23, -78, -70, 70, 84, 91, 108, -27, -12, -26, 81, -96, -63, -6, -52, -7, -110, 68, 39, -100, 64, -75, 92, -19, -45, 59, -15, -4, -36, 59, -17, -92, 32, 51, 7, -45, 8, 9, -72, -66, -26, 67, -21, 114, -21, -108, -70, 16, 16, 53, 3, 55, 60, -51, -54, -95, 30, -83, 5, -81, 75, -44, 26, -56, -8, 2, -79, 78, -91, 83, -74, -45, -58, 20, -51, -63, -68, 44, 20, 93, 18, 104, 56, -68, -69, -97, 51, -14, 71, -12, -46, 73, -17, -50, 89, 24, 78, -12, -25, -81, -14, -20, -46, -90, -11, 89, 4, -12, 87, -110, 112, -12, -48, -67, -26, 19, 55, -38, 77, 12, 77, 59, -63, -97, -9, 26, -7, -89, -70, -78, -69, 44, 68, 16, 5, -34, -114, 46, 49, 76, -73, 84, -63, -65, -10, 85, 34, 11, -74, 16, -17, -43, -13, 46, 40, -25, -2, 57, -73, -58, 13, -61, -8, 32, -39, 46, 62, -14, -48, -85, 77, 77, 63, 43, 65, 79, 88, 68, -63, -46, -59, -32, 34, -45, -36, -13, -75, -1, 51, -71, -47, -89, 73, 77, -80, 81, 50, 22, -26, 28, 81, -77, -80, 93, -86, 89, 38, -3, 14, 82, 56, -59, 50, 6, 84, 39, -53, 69, -74, 84, -69, 65, -50, 5, -36, -24, 44, 106, 17, -37, 83, -43, 90, -26, -65, -38, 7, -39, 103, 76, -25, -6, 67, -51, 34, -62, -94, 34, 48, -53, -70, 36, -47, 47, -29, 58, 62, -82, 20, 90, -18, 3, 1, -44, -67, 3, -70, 83, -41, -2, -10, -67, -84, -79, 64, -33, -76, 70, -84, 52, 27, -27, 74, 32, 72, 85, -89, 63, 101, 83, 29, 37, 98, -101, 44, -7, -21, -33, 52, 32, 64, 86, -58, 23, 77, -57, -60, 59, -60, 21, -3, -3, 59, -26, 74, 12, 15, 95, -87, 14, -55, -44, 97, -43, 23, 65, 23, 85, -67, 115, 82, 2, 23, -97, 46, 56, -16, -19, 6, 89, 36, -65, 25, 3, 28, -34, 31, -52, -55, 9, 74, 67, 12, 46, -15, 44, 36, -36, 8, 1, -73, -24, 101, -87, -63, 67, -89, -19, 16, 14, -40, 88, -92, 72, -26, -18, 34, -31, -32, 3, -2, -3, 81, 127, 45, -20, -70, -27, -28, 22, -70, 2, -13, 60, 39, -91, 7, 25, -42, -96, -71, 53, 48, 43, -31, -19, -69, 9, 88, 0, -31, 27, -17, -59, 94, -73, 19, -45, -97, 38, -15, -37, 42, -53, -69, 95, 100, -34, 3, -104, 7, -67, 100, -13, -98, 18, -95, -81, 56, -20, -82, 61, 48, -33, -34, -64, -9, 17, -82, 48, 81, 7, 67, -16, 20, -26, -61, -30, 96, 14, 45, -7, 27, 33, -74, 45, -77, 30, 77, 39, -56, 42, -18, 2, -82, 36, -47, -9, -28, 10, 77, 23, -35, 40, -60, -26, 98, -85, 48, -82, 51, -67, -6, 82, -65, -84, 1, -6, -55, -34, 45, 99, -74, 41, 84, 3, -14, 66, -5, 80, -63, 36, 17, -2, 61, -67, -55, 21, 79, -58, -51, 117, 47, -2, -5, -20, -16, -46, -79, 15, 69, 6, 52, -57, 78, -26, 83, -50, 48, 3, 41, 0, -51, -69, -27, -6, 99, 4, -31, 12, 84, 37, 87, 89, -68, -8, 27, 16, 42, 58, 19, 94, 49, 51, 42, -86, -15, -80, 38, -62, -67, -5, 10, 57, 42, 54, 19, -69, -17, -51, -65, -64, 25, -18, 100, 81, -12, 97, -70, 54, -37, 31, -23, -82, -62, 0, -22, -76, -88, -81, 15, -17, 53, 17, -77, 35, 44, 48, 33, 63, 2, -48, -12, 30, 11, -4, 77, 16, 0, 44, -82, 20, 30, 1, 49, 45, -35, -2, -8, -82, -27, 80, -25, -55, -86, -81, -56, -6, 0, -15, 65, 66, 77, 76, -11, 56, -88, -75, 88, 51, 15, -72, -88, 29, -3, 36, 3, 52, 14, 30, -53, 4, -60, -58, 23, -37, -23, -67, -80, 18, -29, 44, 59, -1, 20, 39, 79, -67, -25, -65, -23, 21, 66, 8, 89, 21, -13, 0, 34, 11, -101, 32, 48, 13, -24, -1, 72, -16, 58, -61, -89, -42, -24, 40, -29, -67, -39, -50, -28, 69, 0, -94, -39, 75, 76, 13, -22, -20, -58, 94, -4, 21, -49, -51, 21, -22, -57, 68, 32, -67, 8, 69, -84, 45, 54, 9, 113, -40, -1, 23, -97, -18, 100, 17, -65, -17, -1, 55, -101, 45, -53, -73, 72, 31, 85, 9, -24, -10, -39, 15, 3, -53, -70, -81, -8, 102, 26, -58, -59, -81, -78, -62, -73, -43, 3, -85, 56, 5, -87, 20, 101, -35, 42, -16, 40, 15, 37, -55, 24, 2, 33, 1, -14, 68, -57, 28, -66, 87, 18, 55, 21, -42, -91, -58, 26, 41, 64, 67, -61, -22, 59, -92, -39, 75, 73, 61, -57, 7, 33, -74, 27, -56, 58, 61, 30, 82, -50, -44, -16, -14, -54, -86, 30, -23, -5, -51, -84, 6, -29, -14, 115, 19, -97, 55, -75, 27, 22, 96, -23, -94, 8, -78, 81, 49, 78, 81, 55, 124, 49, -45, 91, 57, 12, -76, -102, 28, -83, 27, 12, -67, 15, 18, -61, 41, 17, 19, -88, 12, -93, -57, -29, -73, -85, -68, -58, 50, 91, 63, 54, 47, 8, -7, -71, 80, 60, 58, -75, -18, -52, 71, -81, 96, -90, 49, -5, -31, 8, -73, -4, 40, 53, 68, 65, -41, 61, 29, 100, -1, 31, 27, -92, 52, 75, 79, 35, 13, -47, 57, 57, -59, -29, -32, -25, -69, 48, -92, 76, -21, -97, -38, 94, 26, 47, 40, -75, 19, -88, -25, -49, -50, -55, 11, 84, 14, -67, 58, 54, -64, 30, -54, -81, -61, 41, 34, -78, -69, -103, 0, 74, -17, 52, -21, -29, 94, 45, -95, 60, 48, -87, -93, 108, 25, -72, -104, 18, 83, -64, 14, -86, 69, -82, 3, 24, 43, -62, 54, -17, -63, 50, 47, -1, 66, -21, 20, 80, 68, 13, 56, 14, 47, 77, 57, -7, 71, -6, 20, -13, 48, -19, -24, -80, 42, 46, 61, 43, 51, 80, 51, -54, -26, -7, -57, 78, 29, -100, -55, -46, -28, 40, -12, -67, 73, -26, 45, -51, -61, 26, 53, -73, -38, 26, -34, -16, -1, 25, 82, 14, 12, -63, -63, -106, 26, -2, 84, -71, -29, 52, -89, 86, -93, 40, 75, 62, 41, 13, -39, -34, 13, -30, -5, 0, -48, 88, 12, -40, -52, -9, 35, 47, -30, -51, 58, 18, -4, -41, 9, -55, -20, -23, -36, -41, 31, -23, -71, -42, 33, 27, -69, -60, -11, 88, 67, 35, -8, -59, -78, -76, 20, -64, 6, -44, -30, 83, 61, 97, -78, -38, 10, -13, -16, 42, 81, 24, 58, 111, 17, 51, 
};
const TfArray<2, int> tensor_dimension7 = { 2, { 8,1280 } };
const TfArray<1, float> quant7_scale = { 1, { 0.0007171682664193213, } };
const TfArray<1, int> quant7_zero = { 1, { 0 } };
const TfLiteAffineQuantization quant7 = { (TfLiteFloatArray*)&quant7_scale, (TfLiteIntArray*)&quant7_zero, 0 };
const ALIGN(16) int32_t tensor_data8[1280] = { -1577, -138, -394, -964, 214, -525, -906, -153, -734, -112, -1121, 67, -776, 251, 181, 14, 577, -346, -156, -512, -2311, -1158, 607, 853, -2618, -1082, -445, -1135, -177, -695, -497, -367, -2725, -2074, -525, -728, -961, -806, 150, -322, -1062, 102, -271, 264, -130, -1323, -651, -974, -831, 122, -1005, 149, -1232, -503, -2598, -462, -1048, -1400, -1354, -536, 60, -2157, -814, 1462, -493, -1922, -456, -6, -1109, -203, -448, -432, -1624, -127, -880, -200, -618, -1583, 1922, 101, -1152, 113, -1580, -1160, -836, 501, -1618, 478, -1845, -535, 198, -1324, -995, -1042, -1484, -1278, -399, 253, -752, -216, -91, -1841, -592, -1331, -14, -153, -1466, -1372, -1111, -1538, -1271, -1639, -411, 901, -906, -1450, -1164, -705, -143, -1006, 159, -466, -804, 116, -1873, -688, 456, -1138, -1300, 43, -416, 509, 119, -568, 58, -858, -1599, -1068, -1527, 35, -142, -1343, 162, 1363, -1571, -129, -313, -593, -1665, 147, -537, -435, -1078, -1130, -897, -1671, -989, -969, 67, -589, -1734, -513, -77, -348, -497, -999, 129, -274, -1637, -1221, 2, -718, -2045, -123, -602, -1600, -230, -3738, 398, -1499, -231, -255, -227, 557, -1159, -323, -1223, -180, -672, -1010, -950, -2304, -149, 684, 122, -1273, -1106, -1038, -1670, -354, -1692, -194, -305, -602, -1375, 1094, -1270, -173, -658, -667, -44, -546, -2198, -544, -1096, -744, -172, -454, -244, -254, -1651, 195, -196, -820, -714, -190, -2348, -919, -1304, -342, 248, -39, 342, -634, -174, -1640, -1737, -1391, -398, 141, -827, -1375, -946, -341, -1534, -1652, -1208, -733, -868, -1062, -891, -585, -1310, -1013, -172, 318, 230, -10, -1461, 1003, -1258, -1869, -944, -353, -1097, 513, -691, -304, -2150, -989, -108, -528, -933, 164, -22, -942, 385, -919, -1851, -918, -651, 171, -1482, -1708, -1164, -1399, -753, 158, 253, -441, -677, -1404, -691, 562, -397, -2451, -1896, -384, -277, 31, 306, -1043, -1531, -994, -1108, 537, 215, 35, -179, -572, 809, -2529, -1858, 425, -414, -339, -357, -1391, -18, -627, -1765, -1035, -383, -134, -1102, -1564, 507, -625, -380, -554, -1537, 626, -608, -817, 337, -41, -880, -194, -524, -1167, 341, -730, -1480, -2417, 1669, -1182, -1143, -122, 228, -1341, -932, -1954, 449, -696, -467, -583, -1814, -551, 467, -872, 192, -813, -1444, -488, -562, -568, -1404, -432, -1721, -212, -553, -2503, -486, -1144, 773, -325, -578, 99, -1367, -612, -244, -308, -915, -933, 291, -1440, -818, -1640, -262, -1460, 309, 76, -1655, -93, -788, 1232, -2872, 853, 812, -1664, -231, -294, -870, 535, -73, -434, 504, -779, -1088, -73, -1242, -592, 137, -1245, -1190, 278, -368, -579, -966, 674, -483, -1124, -3228, -11, 18, -157, -173, -141, -1707, -345, -642, 1035, -217, 490, -215, -1067, -599, 12, 55, -481, -800, 58, 1141, 299, -1006, -644, -1543, 1896, -634, 312, -189, 27, -278, -593, -194, -538, -1003, -378, -1841, -883, -802, 66, 55, -923, -271, -1119, -913, -1059, -831, 355, 919, 73, 374, 411, 390, -746, -948, -2510, 983, -336, -63, 87, -566, 571, -82, -1028, -551, -1340, -897, -396, -373, -1063, -204, -1059, -1087, -1035, -20, -294, -1060, -822, -492, -82, -1086, -123, -633, -578, 332, -473, -611, 74, -852, 87, 127, -558, -13, -103, -821, -934, -1697, -809, -1269, -37, -1535, 575, -870, -1392, -1655, -940, -755, -694, 330, 169, 450, 515, -316, 18, -1488, -1499, -1729, 84, 230, -383, 263, -1579, 298, -22, -1561, 273, -1147, -255, 712, 115, 424, -627, -944, -767, 316, -552, 330, -147, -840, -960, -40, -1672, -801, -1127, -1514, -581, -321, -448, 505, -1028, -858, 135, -139, -1250, -386, -720, -453, -651, -923, -142, 109, 81, -1393, -693, -2839, -580, -368, -1183, -2341, -612, -265, -414, 516, -697, -300, -2469, 321, -1248, -662, -1648, 753, -412, -1963, 927, -1164, -295, -2365, -1670, 81, -2044, -584, -441, -1271, -1576, -703, -3634, -511, -409, -1113, -486, -1703, -375, -1339, -1140, -1474, -867, -1309, -2525, -1111, -1177, -737, 73, -977, -732, 613, -758, 688, -614, -102, 1103, -698, -258, -692, 1187, -1461, 474, -304, -1085, -627, -749, -1090, 126, -833, -1270, -995, -1163, -679, -1231, 87, -362, -951, -1019, -1856, -1064, -78, -1468, 439, 8, -607, -138, -610, -953, -122, -1210, -744, 12, 197, 493, -1626, -1314, -1753, -1318, -1318, -610, -1001, 44, -2033, -1981, -1391, -796, -394, -1146, 931, -224, 11, -1398, -1554, -1384, 399, -61, 222, -743, -400, -1231, -730, -251, -1469, -2227, -522, -2555, -128, -363, -1050, -2290, -446, -2224, -1867, -411, 728, -251, -1068, 911, -1698, -491, -894, -542, -837, 678, 1306, -1, -1892, -1525, 466, -844, -1947, -1566, -170, -1403, -72, 1315, 2421, -93, -1575, -683, 120, 866, -912, -1207, -2263, -817, -155, 2308, -296, 251, -2060, -278, -1192, 17, 431, -1258, -1132, 93, -1306, -562, -640, 202, -1059, 480, 619, 137, -569, -904, 129, -1249, 358, -1616, -289, -323, -1512, 497, 145, -468, -601, 66, -89, 304, -1064, -476, -1121, -755, -640, -564, -245, -372, -2011, 74, 537, 660, 13, -464, -912, 56, 1225, -846, -1432, -2712, -483, -1157, -1730, -2033, -1162, -890, -90, -325, -1481, -2206, -1857, -29, -1138, -246, 227, -500, -918, -724, 124, -244, -462, -530, -1184, -1198, 612, -1570, -691, -122, -414, -590, 651, -1163, -917, -282, -963, -1783, -466, -1566, -1685, -2028, -1020, 257, -298, -985, -974, -410, -2085, -576, -576, -1771, -1117, -598, 733, -695, -1116, -1828, -1056, -822, -274, -1808, -136, -218, -668, -1061, -1426, -12, -1026, -127, 124, -1045, -253, 191, -1230, 228, -398, -743, 148, -1397, -275, 429, -4, -728, 290, 177, -483, -1275, -603, 206, -889, -1795, -220, -1167, -934, 346, -925, -515, -685, 7, -309, -1629, -575, 58, -409, 238, -123, -441, -787, -422, -1627, -112, -3238, -696, -1944, -1533, -1628, -2525, -3277, -594, 646, 129, -565, -1400, -1447, -330, 215, -1691, -1018, -1532, -1099, 731, -672, -2242, 999, -2352, 634, -1995, -340, -7, -1554, -1144, -649, -2274, -357, 1286, -225, -472, -2884, 171, 717, 133, -1156, -1348, 41, -703, -519, -1673, -264, -1121, 144, 468, 31, 431, -1110, -859, -1959, -298, -1078, -616, -738, -620, 730, -2469, 761, -1583, -1349, -1366, 185, -1086, -791, 463, -1492, -691, -425, -1776, 281, 781, 441, -667, 303, 70, -2010, -177, -1005, -852, -1870, -865, -1246, -584, 289, 50, -993, -687, -601, -1039, -736, -710, 507, -1010, 211, 262, -967, -640, -578, -1063, 457, -1878, 1110, -1001, -1424, -1825, -1178, -743, -481, -1129, -1282, -340, -754, -957, -260, 281, -2167, -333, -296, -316, 248, -1726, -701, -722, 11, -1223, -912, 254, -1027, -962, -332, -1048, -222, -1797, -1325, -625, -2085, -1091, -2020, -1361, -1358, -1527, -806, 471, -1741, -158, -1229, 1591, -287, -2508, -1129, -697, 118, -1049, -2137, -360, -1558, -320, 246, -429, -772, -812, -112, 41, -2736, -447, -997, -448, -360, -615, -659, -2331, -12, -830, 193, -402, 246, -2687, -287, -2187, -325, -447, -1323, 202, -721, -248, -843, -433, -584, 379, -2778, -1397, -1649, 19, -680, 1547, -672, -990, 1511, -2447, -1647, -818, -1322, -1661, -1601, -2038, -262, -1507, -1768, -286, -770, -1016, 201, 326, -1201, -411, 90, -749, -489, -698, -986, -1293, -1858, 438, 150, -877, 40, -746, -3741, 40, -1679, 570, 911, -428, -967, 278, 792, 1390, 124, -2903, -404, 804, -927, -1110, 850, -2315, -2345, -790, -1378, -718, 1015, -346, -1195, -1409, -61, 579, -1000, -2686, 432, -327, -2024, -1066, -1055, -264, 454, -656, -536, -655, 165, -44, -41, -1294, -815, -832, -712, -451, -853, -911, -1993, -1484, -1349, -1933, -164, -293, -989, -781, -2348, -667, -3137, -890, 1225, 142, 237, -1257, -2462, -1967, -1366, -1803, -937, 914, -612, -1294, -628, -965, -517, -916, 229, -364, 74, -749, 217, -455, -212, -2091, 753, -753, 145, 143, -861, 939, 1116, -478, -148, -1138, -430, -795, 341, -1455, -1604, -1399, -821, -543, -1112, -1310, -26, -1148, -1798, -738, -377, -626, -111, -1461, 1271, -135, 311, -820, -116, -832, -949, -657, -924, 351, -1405, -2070, -769, -1258, 345, 3, };
const TfArray<1, int> tensor_dimension8 = { 1, { 1280 } };
const TfArray<1280, float> quant8_scale = { 1280, { 0.0001960598019650206, 0.00014244925114326179, 0.00018231527064926922, 0.00018989788077306002, 0.00016598658112343401, 0.00024153690901584923, 0.00022654734493698925, 0.00018225614621769637, 0.00022857947624288499, 0.00022453194833360612, 0.00018197394092567265, 0.00019232591148465872, 0.0002211397368228063, 0.00023425517429132015, 0.00016240672266576439, 0.00013051812129560858, 0.00020476900681387633, 0.00024455002858303487, 0.0001894039596663788, 0.00014249667583499104, 0.00018570928659755737, 0.00027302047237753868, 0.00024927433696575463, 0.000134904301376082, 0.00015070356312207878, 0.00026409616111777723, 0.00022058564354665577, 0.00016514760500285774, 0.000170923289260827, 0.00025542185176163912, 0.00019402672478463501, 0.00017433738685213029, 0.00015989346138667315, 0.00019853269623126835, 0.00018444684974383563, 0.00025833080871962011, 0.00020635619875974953, 0.00019502366194501519, 0.00017353320436086506, 0.00020935210341122001, 0.00019564857939258218, 0.00017569703049957752, 0.00021786961588077247, 0.00021170114632695913, 0.00018535896379034966, 0.00019316538237035275, 0.00017743384523782879, 0.00021646139794029295, 0.00020876050984952599, 0.0001616908994037658, 0.00020477849466260523, 0.0001570825552335009, 0.00017310185648966581, 0.00020838364434894174, 0.00013114731700625271, 0.00018614711007103324, 0.00025608070427551866, 0.00017406551341991872, 0.00019097424228675663, 0.00015272515884134918, 0.00018773649935610592, 0.00017616550030652434, 0.00017120593111030757, 0.00020341496565379202, 0.00013698291149921715, 0.00014956346421968192, 0.00022600228840019554, 0.00021084265608806163, 0.0001903474039863795, 0.00025818057474680245, 0.00014702994667459279, 0.00023676922137383372, 0.00019069373956881464, 0.00019947596592828631, 0.00017484686395619065, 0.00019946956308558583, 0.00017838319763541222, 0.00023442175006493926, 0.00019955995958298445, 0.0001600395335117355, 0.00020302634220570326, 0.00012014139065286145, 0.00012054286344209686, 0.00018861611897591501, 0.0001366505166515708, 0.00022774429817218333, 0.00016068013792391866, 0.000135369788040407, 0.00024236057652160525, 0.00019875026191584766, 0.00017443070828448981, 0.0002552627120167017, 0.00021957604622002691, 0.00023109017638489604, 0.00013407426013145596, 0.00017089566972572356, 0.00020638045680243522, 0.00018018072296399623, 0.00025014951825141907, 0.00018591024854686111, 0.00025282456772401929, 0.00017772905994206667, 0.00014510856999550015, 0.000165867357281968, 0.00017654293333180249, 0.00018523057224228978, 0.0001719863066682592, 0.00018793820345308632, 0.0001920688955578953, 0.00017780707275960594, 0.00017718148592393845, 0.00018705465481616557, 0.00018208273104391992, 0.00022301006538327783, 0.00015775757492519915, 0.00020357083121780306, 0.00016991887241601944, 0.00023883677204139531, 0.00017100448894780129, 0.00013795512495562434, 0.00018555918359197676, 0.00018951742094941437, 0.0001855083683039993, 0.00018335574714001268, 0.00016563582175876945, 0.00020368584955576807, 0.00011752996942959726, 0.00018724046822171658, 0.00024511283845640719, 0.00018869998166337609, 0.00015511852689087391, 0.00020763468637596816, 0.00016867324302438647, 0.0002342859806958586, 0.00020877037604805082, 0.00022632343461737037, 0.00017313961870968342, 0.00020459397637750953, 0.00014005026605445892, 0.00015446223551407456, 0.00020959584799129516, 0.00018003906006924808, 0.0001729621144477278, 0.00014648331853095442, 0.00014355350867845118, 0.00023828573466744274, 0.00013724174641538411, 0.00012948774383403361, 0.00015801930567249656, 0.00015438036643899977, 0.00014419622311834246, 0.0001966356358025223, 0.00016411948308814317, 0.00016006859368644655, 0.00019140999938827008, 0.000192584193428047, 0.00016858871094882488, 0.00023644021712243557, 0.0002054690703516826, 0.00017812741862144321, 0.00020836015755776316, 0.00016599935770500451, 0.00020215666154399514, 0.00021471537183970213, 0.00016946847608778626, 0.00021928868955001235, 0.00012596992019098252, 0.00020114899962209165, 0.00014572226791642606, 0.00017663132166489959, 0.00030834099743515253, 0.0002178593713324517, 0.00017931443289853632, 0.00017577926337253302, 0.00017195974942296743, 0.00021824160648975521, 0.00020071526523679495, 0.00017327177920378745, 0.00020532184862531722, 0.00014301984629128128, 0.0001599588431417942, 0.0002295312297064811, 0.0001754729455569759, 0.00015205582894850522, 0.00014924102288205177, 0.00027696343022398651, 0.00016795718693174422, 0.00025293757789768279, 0.00024116742133628577, 0.00016137149941641837, 0.00015382030687760562, 0.00018800664111040533, 0.00019279513799119741, 0.00021454770467244089, 0.00019665385480038822, 0.00015642248035874218, 0.00018660872592590749, 0.00017719523748382926, 0.00017528930038679391, 0.00016408790543209761, 0.00024223812215495855, 0.00022448298113886267, 0.0001760777086019516, 0.00018348117009736598, 0.00012150937254773453, 0.00013277736434247345, 0.00021210394334048033, 0.00020112789934501052, 0.00024389753525611013, 0.00016739344573579729, 0.00017111787747126073, 0.00020836346084252, 0.00016396591672673821, 0.00024723511887714267, 0.00014101914712227881, 0.00018312000611331314, 0.00019328694907017052, 0.00017031619790941477, 0.00016629458696115762, 0.00022307697508949786, 0.00018504307081457227, 0.00018739174993243068, 0.00022522064682561904, 0.00020637427223846316, 0.00019225422875024378, 0.00019445653015282005, 0.00016756578406784683, 0.00016084940580185503, 0.00018460772116668522, 0.00020444270921871066, 0.00018072014790959656, 0.00023704199702478945, 0.00024854441289789975, 0.00021417146490421146, 0.00022736888786312193, 0.00016535649774596095, 0.00018402912246529013, 0.00016055963351391256, 0.00019667600281536579, 0.00018471141811460257, 0.00024001424026209861, 0.0001407596719218418, 0.00020263080659788102, 0.00017353233124595135, 0.00014179087884258479, 0.00019464046636130661, 0.00019798129505943507, 0.00018380250548943877, 0.00024488475173711777, 0.00017439521616324782, 0.00016181128739845008, 0.00019297172548249364, 0.00023010311997495592, 0.00029143912252038717, 0.00018026496400125325, 0.00021069200010970235, 0.00016527462867088616, 0.00016275928646791726, 0.00016024358046706766, 0.00016661436529830098, 0.00017974319052882493, 0.00018698335043154657, 0.00016502886137459427, 0.00017710143583826721, 0.00020034884801134467, 0.00019494714797474444, 0.00016959260392468423, 0.00015638596960343421, 0.00016620774113107473, 0.00014312659914139658, 0.00016276753740385175, 0.00016268785111606121, 0.00019879337924066931, 0.00016516644973307848, 0.00020930718164891005, 0.00018904758326243609, 0.00014668310177512467, 0.00018177357560489327, 0.00016600695380475372, 0.00020762829808518291, 0.00017804988601710647, 0.000160651994519867, 0.00013288237096276134, 0.00017414129979442805, 0.00022975352476350963, 0.00017829881107900292, 0.00016032581334002316, 0.00020586662867572159, 0.00016906022210605443, 0.00017454747285228223, 0.00016219740791711956, 0.00015465791511815041, 0.00026435000472702086, 0.00018519183504395187, 0.00025694214855320752, 0.00019617490761447698, 0.00017439268412999809, 0.00018843566067516804, 0.00018654577434062958, 0.00022450802498497069, 0.00015690669533796608, 0.00018101450405083597, 0.00019595648336689919, 0.00023450559820048511, 0.00015506801719311625, 0.00021002141875214875, 0.00016533830785192549, 0.00021738033683504909, 0.00018643020302988589, 0.00018391560297459364, 0.00017280869360547513, 0.00013904672232456505, 0.0001395211584167555, 0.00019582855748012662, 0.00023661526211071759, 0.00016793901158962399, 0.0002067488239845261, 0.00020423311798367649, 0.00021012462093494833, 0.00020301935728639364, 0.00018305818957742304, 0.0001539432123536244, 0.00020811540889553726, 0.00017454181215725839, 0.00019375958072487265, 0.00012842692376580089, 0.00018588616512715816, 0.00024868329637683928, 0.00017276084690820426, 0.00013970957661513239, 0.00023440526274498552, 0.00016253520152531564, 0.0002216641150880605, 0.00025078296312130988, 0.00016310840146616101, 0.00020130479242652655, 0.0001548063155496493, 0.00016954826423898339, 0.00025196376373060048, 0.00019009083916898817, 0.00017464725533500314, 0.00020316377049311996, 0.00014477652439381927, 0.0001417567691532895, 0.00016641586262267083, 0.00021660819766111672, 0.00016193828196264803, 0.00016259276890195906, 0.00025376296252943575, 0.00018737743084784597, 0.00015528600488323718, 0.00013834767742082477, 0.00015437167894560844, 0.00017551015480421484, 0.00017940769612323493, 0.00013929448323324323, 0.00015978922601789236, 0.00018587619706522673, 0.00014542363351210952, 0.00028932266286574304, 0.00016398662410210818, 0.00019267684547230601, 0.00018138909945264459, 0.00015836839156690985, 0.00023559444525744766, 0.0001707596966298297, 0.00024456399842165411, 0.00020868904539383948, 0.0001665467134444043, 0.00013462183414958417, 0.000241128756897524, 0.00013307735207490623, 0.00017964740982279181, 0.0001972849277080968, 0.0001534273469587788, 0.00017044566629920155, 0.00020196550758555532, 0.00020261855388525873, 0.00016306043835356832, 0.00021545702475123107, 0.00015016671386547387, 0.00015317276120185852, 0.0001318760187132284, 0.00020809956185985357, 0.00021094673138577491, 0.00017397890042047948, 0.00019314771634526551, 0.00016318910638801754, 0.00021225475938990712, 0.00013910842244513333, 0.00017817792831920087, 0.00016456130833830684, 0.00014564885350409895, 0.00017346389358863235, 0.00016291168867610395, 0.00013174106425140053, 0.00014643647591583431, 0.00014813468442298472, 0.00015898098354227841, 0.00020496902288869023, 0.00022958277259021997, 0.00023683972540311515, 0.00018649142293725163, 0.00017310523253399879, 0.00023607714683748782, 0.00023146686726249754, 0.00017228671640623361, 0.00015359578537754714, 0.00018866098253056407, 0.00020384597883094102, 0.00015779044770170003, 0.0002340920182177797, 0.00022529064153786749, 0.00015893785166554153, 0.00019011041149497032, 0.00013499200576916337, 0.00016322101873811334, 0.00025802859454415739, 0.00014674305566586554, 0.00020238375873304904, 0.0001615452638361603, 0.00017338525503873825, 0.00019334765966050327, 0.00022038457973394543, 0.00027929185307584703, 0.00019985069229733199, 0.00019042426720261574, 0.00014758510224055499, 0.00013707739708479494, 0.00018190842820331454, 0.00020636066619772464, 0.00023952020274009556, 0.00014356356405187398, 0.00019141414668411016, 0.00012434212840162218, 0.000219031295273453, 0.00020650486112572253, 0.0001606559962965548, 0.0002131281653419137, 0.00020688191580120474, 0.00018753510084934533, 0.0001885091041913256, 0.00014970262418501079, 0.00018531698151491582, 0.00027967462665401399, 0.0001450360578019172, 0.00016833907284308225, 0.00015929956862237304, 0.00025470799300819635, 0.00015335434000007808, 0.00021297631610650569, 0.00018336980429012328, 0.00017687864601612091, 0.0002109190245391801, 0.00017414867761544883, 0.00024623592616990209, 0.00018679178901948035, 0.00017471432511229068, 0.00020051150931976736, 0.00018265240942128003, 0.00023696510470472276, 0.00018159719184041023, 0.0002284588263137266, 0.00018949138757307082, 0.00021934094547759742, 0.00013792452227789909, 0.00016046264499891549, 0.00021292174642439932, 0.00014001419185660779, 0.00023238483117893338, 0.00018861866556107998, 0.00022674794308841228, 0.00016770430374890566, 0.00013833328557666391, 0.00022779994469601661, 0.00017626688349992037, 0.00021854804072063416, 0.00014655714039690793, 0.00016486766980960965, 0.00015682772209402174, 0.00018380698747932911, 0.00023043673718348145, 0.00021885844762437046, 0.00015561882173642516, 0.00014453103358391672, 0.00018184477812610567, 0.00024499383289366961, 0.00016268756007775664, 0.00024011160712689161, 0.00015562374028377235, 0.00018915047985501587, 0.00020088626479264349, 0.0002029469033004716, 0.00021682275109924376, 0.00018177040328737348, 0.00018019079288933426, 0.00014662035391665995, 0.00024869121261872351, 0.00020004226826131344, 0.0001693864178378135, 0.00014841914526186883, 0.00025341706350445747, 0.00017675571143627167, 0.00023865138064138591, 0.00028553034644573927, 0.00017837656196206808, 0.00014942103007342666, 0.00021132006077095866, 0.0001829703978728503, 0.00018741039093583822, 0.00015681263175792992, 0.00022224120039027184, 0.00018307360005564988, 0.00018939450092148036, 0.00017444057448301464, 0.00017888637376017869, 0.00016525089449714869, 0.0001984436676139012, 0.00015696304035373032, 0.00018631240527611226, 0.00013140168448444456, 0.00017442289390601218, 0.00019741679716389626, 0.00018984140479005873, 0.0001897542824735865, 0.00014899852976668626, 0.00023312134726438671, 0.00017701974138617516, 0.00018563424237072468, 0.00025380685110576451, 0.00021249173732940108, 0.00024312168534379452, 0.00016286625759676099, 0.0001644131843931973, 0.00016455890727229416, 0.00019760018039960414, 0.00020923011470586061, 0.00017550200573168695, 0.00021468248451128602, 0.00014485117571894079, 0.00015170729602687061, 0.00014367168478202075, 0.00012697726197075099, 0.00015594884462188929, 0.00015338412777055055, 0.00025156160700134933, 0.00018824407015927136, 0.00021645525703206658, 0.00016160930681508034, 0.00025471829576417804, 0.00018008689221460372, 0.0001478401682106778, 0.00019268457253929228, 0.00022879596508573741, 0.00022012580302543938, 0.00015792633348610252, 0.00024218339240178466, 0.00022494701261166483, 0.00020015235350001603, 0.00026409860583953559, 0.00018925261974800378, 0.00018551009998191148, 0.00021378809469752014, 0.00016506652173120528, 0.00016538883210159838, 0.00018191154231317341, 0.00015792068734299392, 0.0001596748479641974, 0.00022604691912420094, 0.00019665157014969736, 0.000160794603289105, 0.00018043311138171703, 0.0001966345589607954, 0.00015948520740494132, 0.00014557472604792565, 0.00018289686704520136, 0.00025944586377590895, 0.00017413517343811691, 0.00015448642079718411, 0.00019295711535960436, 0.00017907463188748807, 0.00015092054673004895, 0.00019310083007439971, 0.00023013498866930604, 0.00017037168436218053, 0.00017490019672550261, 0.00013123008830007166, 0.00021775053755845875, 0.00020462818793021142, 0.00016186150605790317, 0.00018217050819657743, 0.00017503359413240105, 0.00023019727086648345, 0.00020484058768488467, 0.00023437041090801358, 0.00024468047195114195, 0.00017909392772708088, 0.00017368419503327459, 0.00015900003199931234, 0.00014698856102768332, 0.0002146486658602953, 0.0001436540624126792, 0.00015025962784420699, 0.00020186133042443544, 0.00018172469572164118, 0.00023343776410911232, 0.00020025359117425978, 0.00016128337301779538, 0.00015476452244911343, 0.00018596735026221722, 0.00021709699649363756, 0.00017587146430741996, 0.0002360792423132807, 0.00016992790915537626, 0.00022643749252893031, 0.00019217828230466694, 0.00019305858586449176, 0.00014416511112358421, 0.00016236580268014222, 0.00017470320744905621, 0.00016434358258266002, 0.00020353123545646667, 0.00015822604473214597, 0.00016867746307980269, 0.00022441735200118273, 0.00015618535690009594, 0.00020914239576086402, 0.00019580037042032927, 0.00019691373745445162, 0.00016360674635507166, 0.00017663740436546504, 0.00018822925630956888, 0.00016494876763317734, 0.00017447926802560687, 0.00026273555704392493, 0.00019787967903539538, 0.00020646516350097954, 0.00028281993581913412, 0.00016652049089316279, 0.00021530842059291899, 0.00018075769185088575, 0.00015740924573037773, 0.00019505417731124908, 0.00016995966143440455, 0.00019130414875689894, 0.00016139356011990458, 0.0002035545912804082, 0.00022626048303209245, 0.00018467554764356464, 0.00017192718223668635, 0.00018511638336349279, 0.00019382241589482874, 0.00025290058692917228, 0.00022306840401142836, 0.0001381956972181797, 0.00025727695901878178, 0.00016465317457914352, 0.00018653715960681438, 0.00017278677842114121, 0.00013343295722734183, 0.00024735613260418177, 0.00012478066491894424, 0.00019007526861969382, 0.0001794228155631572, 0.00019362021703273058, 0.00014520397235173732, 0.00020857217896264046, 0.00020727879018522799, 0.00021012921934016049, 0.00014894860214553773, 0.00024243834195658565, 0.00016997047350741923, 0.00021999733871780336, 0.0001490474387537688, 0.00021069399372208863, 0.00013485261297319084, 0.00019500697089824826, 0.00023764028446748853, 0.00014742060739081353, 0.00022863910999149084, 0.00015141954645514488, 0.00018711939628701657, 0.00014603225281462073, 0.00016690422489773482, 0.00021225986711215228, 0.00022711273049935699, 0.00016285985475406051, 0.0001733614772092551, 0.00013569607108365744, 0.00020128312462475151, 0.00018910341896116734, 0.00015244779933709651, 0.00014610039943363518, 0.00019017391605302691, 0.00020147663599345833, 0.00019982639059890062, 0.0002476370136719197, 0.00027540780138224363, 0.00020558739197440445, 0.00016333573148585856, 0.00018279174400959164, 0.00013991295418236405, 0.00019983855600003153, 0.00021408364409580827, 0.0001531975285615772, 0.00016697327373549342, 0.00018182869825977832, 0.00020669282821472734, 0.00017195302643813193, 0.00013628823217004538, 0.0002025283029070124, 0.0001478637132095173, 0.00021581759210675955, 0.00020062155090272427, 0.00020260267774574459, 0.00015149259706959128, 0.0001728401257423684, 0.00018220757192466408, 0.00014296479639597237, 0.00020505336578935385, 0.00018688185082282871, 0.0002261231275042519, 0.00016109361604321748, 0.0001498645287938416, 0.00022690116020385176, 0.00024567911168560386, 0.0001846306404331699, 0.00020284259517211467, 0.00022629318118561059, 0.00014982129505369812, 0.00012723404506687075, 0.00015021587023511529, 0.00013850831601303071, 0.0001751824893290177, 0.00018448896298650652, 0.00020150441559962928, 0.00014409466530196369, 0.00017425556143280119, 0.00017300472245551646, 0.00018093231483362615, 0.00016149356088135391, 0.00014249395462684333, 0.00017091739573515952, 0.00018210420967079699, 0.00022494292352348566, 0.00017993392248172313, 0.00015108927618712187, 0.0002226951764896512, 0.00012156022421550006, 0.00018357235239818692, 0.00017377757467329502, 0.00015551209799014032, 0.0001706805924186483, 0.00012661863001994789, 0.00023787420650478452, 0.00014255156565923244, 0.00016137586499098688, 0.00016844105266500264, 0.00019459679606370628, 0.00024363602278754115, 0.00018662697402760386, 0.00019173638429492712, 0.00019875682482961565, 0.00016058929031714797, 0.00023860136570874602, 0.00020043877884745598, 0.00019830239762086421, 0.00018453276425134391, 0.00018503930186852813, 0.0001473685260862112, 0.00017357118485961109, 0.00014157388068269938, 0.00021811491751577705, 0.0001358467125101015, 0.00030460307607427239, 0.0002406600397080183, 0.00020402888185344636, 0.00016445385699626058, 0.00020401955407578498, 0.00015578702732454985, 0.0001510633883299306, 0.00013764834147877991, 0.00022831674141343683, 0.00017868794384412467, 0.00019424404308665544, 0.00019855544087477028, 0.00014510974870063365, 0.00022681913105770946, 0.00017730680701788515, 0.00024081631272565573, 0.00019306661852169782, 0.00016190321184694767, 0.00020680773013737053, 0.00015785322466399521, 0.00014249916421249509, 0.00017405889229848981, 0.00019306095782667398, 0.00017086618754547089, 0.00015702705422881991, 0.0002551445213612169, 0.00025102513609454036, 0.00024234887678176165, 0.0001857006864156574, 0.00015408828039653599, 0.00020885451522190124, 0.00014604287571273744, 0.00017530798504594713, 0.00015316766803152859, 0.00019158862414769828, 0.00015991137479431927, 0.00026620016433298588, 0.0001932671875692904, 0.00018291770538780838, 0.00018249543791171163, 0.00026038539363071322, 0.00015595275908708572, 0.00021685131650883704, 0.00017219579603988677, 0.00020892402972094715, 0.00020148066687397659, 0.00018739764345809817, 0.00016990360745694488, 0.00025035926955752075, 0.00020602434233296663, 0.00018638839537743479, 0.00017173425294458866, 0.00015816827362868935, 0.00023056007921695709, 0.00024059430870693177, 0.00016412594413850456, 0.00017862451204564422, 0.00019424823403824121, 0.00015785575669724494, 0.0001586156286066398, 0.00026927186991088092, 0.00015272171003744006, 0.00018046697368845344, 0.000179878348717466, 0.0001444485824322328, 0.00014205389015842229, 0.00017597214900888503, 0.00013979303184896708, 0.00026286148931831121, 0.00016318456619046628, 0.00023435648472514004, 0.00015843934670556337, 0.00017375571769662201, 0.0001265188620891422, 0.00016185091226361692, 0.00019470778352115303, 0.00013356406998354942, 0.00020267549552954733, 0.00014976850070524961, 0.00021758633374702185, 0.00019050385162699968, 0.00016744999447837472, 0.00016613464686088264, 0.00014817903866060078, 0.00013799118460156024, 0.00016444888024125248, 0.00016275701636914164, 0.00021853462385479361, 0.00021621161431539804, 0.00016849425446707755, 0.00017537632083985955, 0.00019790073565673083, 0.00022453998099081218, 0.00019730725034605712, 0.00019208410230930895, 0.00014855795598123223, 0.00019170287123415619, 0.00020321307238191366, 0.0002197579451603815, 0.00018952203390654176, 0.0002029483875958249, 0.00021743688557762653, 0.00011488367454148829, 0.00015882331354077905, 0.00018648615514393896, 0.00012447558401618153, 0.00014505766739603132, 0.0001503520761616528, 0.00016558819334022701, 0.00015734191401861608, 0.0001631994527997449, 0.00012904399773105979, 0.00015537648869212717, 0.00016508233966305852, 0.00026542862178757787, 0.00019117000920232385, 0.00022588873980566859, 0.00022129203716758639, 0.00020651539671234787, 0.00013297231635078788, 0.00013857240264769644, 0.00019032225827686489, 0.00020661093003582209, 0.00014239219308365136, 0.00020733437850140035, 0.00017820857465267181, 0.0002135296817868948, 0.00013653369387611747, 0.0002202115865657106, 0.00022693577921018004, 0.00020188720372971147, 0.00013944719103164971, 0.00019429156964179128, 0.00015640826313756406, 0.00017661401943769306, 0.0001624599244678393, 0.00017241718887817115, 0.00015698831703048199, 0.00016978271014522761, 0.00019557718769647181, 0.0001571030734339729, 0.00018642772920429707, 0.00023667933419346809, 0.00017813111480791122, 0.00017846842820290476, 0.00023133320792112499, 0.00014731042028870434, 0.00014801035285927355, 0.00022291032655630261, 0.00016876596782822162, 0.00013579735241364688, 0.00023123245046008378, 0.00018151567201130092, 0.00016008291277103126, 0.00018448363698553294, 0.00020771726849488914, 0.0002085694286506623, 0.0002264448266942054, 0.00020407055853866041, 0.00020763879001606256, 0.00019147882994730026, 0.00020401309302542359, 0.0001677438267506659, 0.00020673140534199774, 0.00019089745183009654, 0.00019649621390271932, 0.00018214913143310696, 0.00014347668911796063, 0.00015915311814751476, 0.00017533205391373485, 0.00018330053717363626, 0.00019411333778407425, 0.00015497911954298615, 0.00019586889538913965, 0.00017071723414119333, 0.00010112774180015549, 0.00024514368851669133, 0.0001539477234473452, 0.00016324775060638785, 0.00016182659601327032, 0.00017793259758036584, 0.00013278414553496987, 0.00020678593136835843, 0.00016625043645035475, 0.00012843907461501658, 0.0001743921748129651, 0.00013696651149075478, 0.00018969777738675475, 0.00018994811398442835, 0.00016419653547927737, 0.00014938830281607807, 0.00010939317871816456, 0.00017107748135458678, 0.00023479586525354534, 0.00019722795695997775, 0.00015979650197550654, 0.00021547709184233099, 0.00020313079585321248, 0.00014037410437595099, 0.00018196126620750874, 0.00013459997717291117, 0.00019313931989017874, 0.00017947191372513771, 0.00021119997836649418, 0.00021618390746880323, 0.000182981530088, 0.00015639656339772046, 0.00016866848454810679, 0.00017312195268459618, 0.00016535804024897516, 0.00015203915245365351, 0.00021189382823649794, 0.00020590612257365137, 0.00020425162801984698, 0.0001359427988063544, 0.00016855861758813262, 0.0002523634466342628, 0.00017225361079908907, 0.00018384284339845181, 0.00017871748423203826, 0.00021629217371810228, 0.00025683481362648308, 0.00021520117297768593, 0.00017205732001457363, 0.00017217124695889652, 0.0002105032472172752, 0.00019527222320903093, 0.00015298153448384255, 0.00014433651813305914, 0.0001684094313532114, 0.00018599472241476178, 0.00019660673569887877, 0.00022517300385516137, 0.00017306022346019745, 0.00018388046009931713, 0.00024809301248751581, 0.00025779436691664159, 0.00014663570618722588, 0.00022142856323625892, 0.00018668176198843867, 0.00016991452139336616, 0.00014892476610839367, 0.00015471337246708572, 0.00020891377062071115, 0.00028088301769457757, 0.00015226399409584701, 0.00014926071162335575, 0.00011403320968383923, 0.00022896510199643672, 0.00018758595979306847, 0.0001821678742999211, 0.00020472051983233541, 0.00017074863717425615, 0.00012459643767215312, 0.00016022262570913881, 0.00016149604925885797, 0.00023191340733319521, 0.0001968630967894569, 0.00022630870807915926, 0.0002020358806475997, 0.00020105073053855449, 0.00016605335986241698, 0.00014274934073910117, 0.0001957646309165284, 0.0001671209029154852, 0.00023849586432334036, 0.00022152553719934076, 0.00019992432498838753, 0.00013067421969026327, 0.00020263761689420789, 0.00021760193340014666, 0.00022080597409512848, 0.0001735187106532976, 0.00019940861966460943, 0.00020688878430519253, 0.00024891822249628603, 0.00019027783127967268, 0.00021374977950472385, 0.00019376991258468479, 0.00013109071005601436, 0.00013516822946257889, 0.00013609508459921926, 0.00018231275316793472, 0.00013340296573005617, 0.00020350012346170843, 0.0002342073421459645, 0.00020318540919106454, 0.00019084051018580794, 0.00015765799616929144, 0.00015531326062045991, 0.00026912428438663483, 0.00021674008166883141, 0.00016277861141134053, 0.00019267947936896235, 0.00019029504619538784, 0.00013377419963944703, 0.00018961186287924647, 0.00018857310351449996, 0.00016092754958663136, 0.00016279406554531306, 0.00015686129336245358, 0.00019624248670879751, 0.00014418104547075927, 0.00014067230222281069, 0.00020923902047798038, 0.00019865721696987748, 0.00018675693718250841, 0.00018975257989950478, 0.00025155447656288743, 0.00015725007688160986, 0.00017176245455630124, 0.00013702479191124439, 0.00014807285333517939, 0.00017170897626783699, 0.00020727647643070668, 0.00019300275016576052, 0.00019660995167214423, 0.00015836521924939007, 0.00013996545749250799, 0.00017038073565345258, 0.00017607641348149627, 0.00020643034076783806, 0.00015785917639732361, 0.00017664552433416247, 0.00017179240239784122, 0.00014368427218869328, 0.00012670563592109829, 0.00021464590099640191, 0.00026671902742236853, 0.00019720509590115398, 0.00016002581105567515, 0.00023735279683023691, 0.00023149812477640808, 0.00015522270405199379, 0.00018753114272840321, 0.00014658570580650121, 0.00018359672685619444, 0.00014782276412006468, 0.00015712624008301646, 0.00014496814401354641, 0.00016498987679369748, 0.00017011628369800746, 0.00021415039373096079, 0.00017587681941222399, 0.00014434204786084592, 0.000138983188662678, 0.0001531772140879184, 0.00019473362772259861, 0.00015015866665635258, 0.00022776502009946853, 0.00016896062879823148, 0.00018546442152000964, 0.00019251862249802798, 0.00015287178393919021, 0.00020047863654326648, 0.00020925796707160771, 0.0002046668523689732, 0.00019119383068755269, 0.00021993368864059448, 0.00018783658742904663, 0.00018048558558803052, 0.0002429214509902522, 0.00014549562183674425, 0.00020680765737779438, 0.00023045540729071945, 0.00019252693164162338, 0.00018084519251715392, 0.00016840266471263021, 0.00018127509974874556, 0.00019395686103962362, 0.00015472774975933135, 0.00014890119200572371, 0.00015026800974737853, 0.00021154392743483186, 0.00021076350822113454, 0.00017197192937601358, 0.0001283076562685892, 0.0002104720042552799, 0.00013183760165702552, 0.00017498290981166065, 0.0002074546500807628, 0.0001709462667349726, 0.00020558017422445118, 0.00015851763600949198, 0.00022767100017517805, 0.00020634449901990592, 0.00018402277783025056, 0.00015659179189242423, 0.00019017088925465941, 0.00016162551764864475, 0.00018761378305498511, 0.00017359280900564045, 0.00014411778829526156, 0.0001666882453719154, 0.0002029816823778674, 0.00019807531498372555, 0.00019565154798328876, 0.00019247658201493323, 0.00013606323045678437, 0.000150583844515495, 0.00021273604943417013, 0.00017622532323002815, 0.00026716673164628446, 0.00015735739725641906, 0.0001835808070609346, 0.00016097321349661797, 0.0002395608025835827, 0.00018422010180074722, 0.00019179511582478881, 0.00019113413873128593, 0.00019645520660560578, 0.00023742893245071173, 0.00016562452947255224, 0.00012660096399486065, 0.00019459577742964029, 0.00020403349481057376, 0.00023296663130167872, 0.00014830427244305611, 0.00021658203331753612, 0.00015230401186272502, 0.00015586704830639064, 0.00020932854386046529, 0.00019649034948088229, 0.00022484695364255458, 0.0002117351396009326, 0.00015809699834790081, 0.00013804167974740267, 0.00017736255540512502, 0.00018266712140757591, 0.00016519198834430426, 0.00024762158864177763, 0.00029265310149639845, 0.0001686097530182451, 0.00013978239439893514, 0.00019531308498699218, 0.00021426625608000904, 0.00017662098980508745, 0.00023515790235251188, 0.00014941697008907795, 0.00018450684729032218, 0.00020017279894091189, 0.00018963773618452251, 0.00018094322877004743, 0.00018899005954153836, 0.00020272479741834104, 0.00017297659360338002, 0.00018865866877604276, 0.00014513055793941021, 0.00017775897867977619, 0.00016054858861025423, 0.00014815641043242067, 0.00022521098435390741, 0.00017149043560493737, 0.0001659796544117853, 0.00022266308951657265, 0.00018235418247058988, 0.00017569209740031511, 0.00017073462367989123, 0.00017932176706381142, 0.00020436930935829878, 0.0001738869323162362, 0.00019661933765746653, 0.00020372934523038566, 0.00026512012118473649, 0.00015863456064835191, 0.00021026619651820511, 0.00022995332255959511, 0.00016782360034994781, 0.00012788451567757875, 0.00019894090655725449, 0.00018921455193776637, 0.00022387655917555094, 0.00021189534163568169, 0.00018135660502593964, 0.00021678493067156523, 0.00016225800209213048, 0.00022494293807540089, 0.00015543683548457921, 0.00021249834389891475, 0.0001627036981517449, 0.00020649335056077689, 0.00017646247579250485, 0.00024237895559053868, 0.0001666691096033901, 0.00018865252786781639, 0.00015889844507910311, 0.00022877413721289486, 0.0001893247535917908, 0.0001713199308142066, 0.00017930136527866125, 0.00016422563930973411, 0.00018302143143955618, 0.00018431789067108184, 0.00019066296226810664, 0.00019590144802350551, 0.00015665068349335343, 0.00013855074939783663, 0.00019190323655493557, 0.00021887353796046227, 0.00018274740432389081, 0.00017165079771075398, 0.00017443859542254359, 0.00027109740767627954, 0.00017721545009408146, 0.00017834280151873827, 0.00017246467177756131, } };
const TfArray<1280, int> quant8_zero = { 1280, { 0,0,0,0,0,0,0,0,0,0,0,0,0,0,0,0,0,0,0,0,0,0,0,0,0,0,0,0,0,0,0,0,0,0,0,0,0,0,0,0,0,0,0,0,0,0,0,0,0,0,0,0,0,0,0,0,0,0,0,0,0,0,0,0,0,0,0,0,0,0,0,0,0,0,0,0,0,0,0,0,0,0,0,0,0,0,0,0,0,0,0,0,0,0,0,0,0,0,0,0,0,0,0,0,0,0,0,0,0,0,0,0,0,0,0,0,0,0,0,0,0,0,0,0,0,0,0,0,0,0,0,0,0,0,0,0,0,0,0,0,0,0,0,0,0,0,0,0,0,0,0,0,0,0,0,0,0,0,0,0,0,0,0,0,0,0,0,0,0,0,0,0,0,0,0,0,0,0,0,0,0,0,0,0,0,0,0,0,0,0,0,0,0,0,0,0,0,0,0,0,0,0,0,0,0,0,0,0,0,0,0,0,0,0,0,0,0,0,0,0,0,0,0,0,0,0,0,0,0,0,0,0,0,0,0,0,0,0,0,0,0,0,0,0,0,0,0,0,0,0,0,0,0,0,0,0,0,0,0,0,0,0,0,0,0,0,0,0,0,0,0,0,0,0,0,0,0,0,0,0,0,0,0,0,0,0,0,0,0,0,0,0,0,0,0,0,0,0,0,0,0,0,0,0,0,0,0,0,0,0,0,0,0,0,0,0,0,0,0,0,0,0,0,0,0,0,0,0,0,0,0,0,0,0,0,0,0,0,0,0,0,0,0,0,0,0,0,0,0,0,0,0,0,0,0,0,0,0,0,0,0,0,0,0,0,0,0,0,0,0,0,0,0,0,0,0,0,0,0,0,0,0,0,0,0,0,0,0,0,0,0,0,0,0,0,0,0,0,0,0,0,0,0,0,0,0,0,0,0,0,0,0,0,0,0,0,0,0,0,0,0,0,0,0,0,0,0,0,0,0,0,0,0,0,0,0,0,0,0,0,0,0,0,0,0,0,0,0,0,0,0,0,0,0,0,0,0,0,0,0,0,0,0,0,0,0,0,0,0,0,0,0,0,0,0,0,0,0,0,0,0,0,0,0,0,0,0,0,0,0,0,0,0,0,0,0,0,0,0,0,0,0,0,0,0,0,0,0,0,0,0,0,0,0,0,0,0,0,0,0,0,0,0,0,0,0,0,0,0,0,0,0,0,0,0,0,0,0,0,0,0,0,0,0,0,0,0,0,0,0,0,0,0,0,0,0,0,0,0,0,0,0,0,0,0,0,0,0,0,0,0,0,0,0,0,0,0,0,0,0,0,0,0,0,0,0,0,0,0,0,0,0,0,0,0,0,0,0,0,0,0,0,0,0,0,0,0,0,0,0,0,0,0,0,0,0,0,0,0,0,0,0,0,0,0,0,0,0,0,0,0,0,0,0,0,0,0,0,0,0,0,0,0,0,0,0,0,0,0,0,0,0,0,0,0,0,0,0,0,0,0,0,0,0,0,0,0,0,0,0,0,0,0,0,0,0,0,0,0,0,0,0,0,0,0,0,0,0,0,0,0,0,0,0,0,0,0,0,0,0,0,0,0,0,0,0,0,0,0,0,0,0,0,0,0,0,0,0,0,0,0,0,0,0,0,0,0,0,0,0,0,0,0,0,0,0,0,0,0,0,0,0,0,0,0,0,0,0,0,0,0,0,0,0,0,0,0,0,0,0,0,0,0,0,0,0,0,0,0,0,0,0,0,0,0,0,0,0,0,0,0,0,0,0,0,0,0,0,0,0,0,0,0,0,0,0,0,0,0,0,0,0,0,0,0,0,0,0,0,0,0,0,0,0,0,0,0,0,0,0,0,0,0,0,0,0,0,0,0,0,0,0,0,0,0,0,0,0,0,0,0,0,0,0,0,0,0,0,0,0,0,0,0,0,0,0,0,0,0,0,0,0,0,0,0,0,0,0,0,0,0,0,0,0,0,0,0,0,0,0,0,0,0,0,0,0,0,0,0,0,0,0,0,0,0,0,0,0,0,0,0,0,0,0,0,0,0,0,0,0,0,0,0,0,0,0,0,0,0,0,0,0,0,0,0,0,0,0,0,0,0,0,0,0,0,0,0,0,0,0,0,0,0,0,0,0,0,0,0,0,0,0,0,0,0,0,0,0,0,0,0,0,0,0,0,0,0,0,0,0,0,0,0,0,0,0,0,0,0,0,0,0,0,0,0,0,0,0,0,0,0,0,0,0,0,0,0,0,0,0,0,0,0,0,0,0,0,0,0,0,0,0,0,0,0,0,0,0,0,0,0,0,0,0,0,0,0,0,0,0,0,0,0,0,0,0,0,0,0,0,0,0,0,0,0,0,0,0,0,0,0,0,0,0,0,0,0,0,0,0,0,0,0,0,0,0,0,0,0,0,0,0,0,0,0,0,0,0,0,0,0,0,0,0,0,0,0,0,0,0,0,0,0,0,0,0,0,0,0,0,0,0,0,0,0,0,0,0,0,0,0,0,0,0,0,0,0,0,0,0,0,0,0,0,0,0,0,0,0,0,0,0,0,0,0,0,0,0,0,0,0,0,0,0,0,0,0,0,0,0,0,0,0,0,0,0,0,0,0,0,0,0,0,0,0,0,0,0,0,0,0,0,0,0,0,0,0,0,0,0,0,0,0,0,0,0,0,0,0,0,0,0,0,0,0,0,0,0,0,0,0,0,0,0,0,0,0,0,0,0,0,0,0,0,0,0,0,0,0,0,0,0,0,0,0,0,0,0,0,0,0,0,0,0,0,0,0,0,0,0,0,0,0,0,0,0,0,0,0,0,0,0,0,0,0,0,0,0,0,0,0,0,0,0,0,0,0,0,0,0,0,0,0,0,0,0,0,0,0,0 } };
const TfLiteAffineQuantization quant8 = { (TfLiteFloatArray*)&quant8_scale, (TfLiteIntArray*)&quant8_zero, 0 };
const ALIGN(16) int8_t tensor_data9[1280*1*1*16] = { 
  /* [0][0][][] */ -41,-69,-6,43,33,-127,39,73,88,-57,-23,43,39,-5,-119,24, 
  /* [1][0][][] */ 88,98,9,6,68,115,-27,-84,-127,61,107,-73,58,5,43,83, 
  /* [2][0][][] */ -66,28,-6,-2,-41,27,46,-53,-39,69,30,27,11,117,-9,-127, 
  /* [3][0][][] */ 53,-20,127,-87,-41,-39,81,30,-51,38,0,-78,78,27,-3,7, 
  /* [4][0][][] */ 86,98,109,-16,-45,11,65,38,-37,16,127,83,90,11,51,-73, 
  /* [5][0][][] */ -50,-22,1,1,-35,-12,127,-70,-32,87,-29,15,46,-40,85,5, 
  /* [6][0][][] */ 42,-4,-19,-21,38,67,25,-127,-74,-68,-10,-26,-15,11,26,-43, 
  /* [7][0][][] */ 8,24,-15,-15,32,38,28,-104,-9,41,-104,78,-65,-76,-13,-127, 
  /* [8][0][][] */ -32,-69,58,82,85,49,-30,-127,-100,56,22,-67,7,-66,15,-34, 
  /* [9][0][][] */ 50,-20,25,-75,54,18,-30,11,-8,-30,-47,1,3,-127,-114,26, 
  /* [10][0][][] */ -12,53,-83,32,27,38,116,6,58,5,32,12,95,-102,79,-127, 
  /* [11][0][][] */ 100,-8,17,-16,-37,31,-7,-53,127,53,46,-39,-6,54,-17,-89, 
  /* [12][0][][] */ -53,74,32,-127,-24,14,-36,-68,-34,0,-37,-4,-9,33,19,-38, 
  /* [13][0][][] */ 8,-29,7,9,20,52,-40,-50,7,-22,41,-6,127,16,4,-97, 
  /* [14][0][][] */ -11,127,11,-91,-102,36,-81,5,80,64,-19,69,19,68,49,-28, 
  /* [15][0][][] */ -15,-25,56,29,3,-57,-81,-106,127,-47,81,-23,-98,109,-50,96, 
  /* [16][0][][] */ -2,-37,127,-45,25,42,-1,35,-96,56,102,10,15,-31,40,-44, 
  /* [17][0][][] */ -70,-19,-30,-24,6,-46,127,24,75,-17,39,16,7,47,64,-109, 
  /* [18][0][][] */ 74,27,-50,127,51,-14,-63,17,-34,-18,-15,-19,83,105,78,2, 
  /* [19][0][][] */ 87,-61,32,98,61,21,31,-24,14,27,103,-40,118,-5,-81,-127, 
  /* [20][0][][] */ -119,-127,-8,-5,-22,23,70,-23,41,39,105,-12,68,28,43,47, 
  /* [21][0][][] */ -1,-48,-10,2,36,16,127,43,-9,-19,-7,-4,-42,-45,22,29, 
  /* [22][0][][] */ 65,8,127,-6,-18,28,-64,-15,-38,-120,-77,11,-34,29,-46,22, 
  /* [23][0][][] */ 23,44,65,-117,127,69,7,47,-74,-22,26,89,70,65,-81,-121, 
  /* [24][0][][] */ -111,54,48,-28,-11,40,-127,-42,-89,109,20,-14,44,93,12,61, 
  /* [25][0][][] */ 20,18,-127,-14,26,67,-37,26,9,35,29,-42,-24,-13,-18,-25, 
  /* [26][0][][] */ -9,-24,27,-3,29,35,-75,27,-127,-18,86,-5,44,-30,-37,21, 
  /* [27][0][][] */ -4,-10,-12,-127,17,84,37,-2,-13,72,-4,-39,2,115,-52,-43, 
  /* [28][0][][] */ -26,-65,87,-127,33,-63,82,31,124,-6,22,-47,-101,52,-66,19, 
  /* [29][0][][] */ -30,-18,-25,41,3,13,79,-11,25,5,39,-30,127,25,21,-34, 
  /* [30][0][][] */ 115,43,50,67,-127,-30,25,8,49,-65,33,-32,-29,39,30,-6, 
  /* [31][0][][] */ 73,-24,47,58,19,127,7,84,13,-66,50,64,-27,-54,-28,40, 
  /* [32][0][][] */ 50,22,-45,49,-99,-15,-18,1,-18,82,127,-5,49,-19,-118,-87, 
  /* [33][0][][] */ -69,-55,-96,-9,-9,-40,59,-3,95,127,45,70,-58,42,17,23, 
  /* [34][0][][] */ 11,22,0,-20,-13,46,-88,-53,2,-42,86,0,80,127,87,-16, 
  /* [35][0][][] */ -127,28,54,-32,-1,-66,-22,-2,8,69,-53,-60,-46,-64,35,15, 
  /* [36][0][][] */ -109,44,-14,11,62,-15,-127,24,15,-14,-27,1,-23,26,-38,-13, 
  /* [37][0][][] */ -103,23,-28,74,55,-7,-6,-18,127,-44,-18,43,-2,-13,-14,56, 
  /* [38][0][][] */ 27,-127,78,6,-41,2,-32,50,3,44,60,-46,118,10,7,-11, 
  /* [39][0][][] */ -41,31,43,-35,-19,-32,7,-105,19,-127,-39,3,88,8,-18,24, 
  /* [40][0][][] */ 1,-28,-89,-127,-73,-34,30,52,-66,33,101,36,81,-64,57,-15, 
  /* [41][0][][] */ 20,-55,-15,127,-31,39,98,34,-6,31,5,74,-68,-17,7,-103, 
  /* [42][0][][] */ 3,28,88,-39,-14,18,26,19,54,-50,-16,-35,-123,2,-15,-127, 
  /* [43][0][][] */ 127,32,79,-60,-12,5,-46,-91,37,-7,-53,37,5,20,60,2, 
  /* [44][0][][] */ -20,-73,26,-32,33,-50,127,-47,68,-36,63,37,10,99,-28,-86, 
  /* [45][0][][] */ 5,106,19,-43,38,7,-68,-87,68,-32,-83,50,59,-63,-46,-127, 
  /* [46][0][][] */ -18,48,-88,-61,-21,-36,-42,-56,97,43,106,51,-127,25,46,-15, 
  /* [47][0][][] */ 4,1,37,126,-3,38,-3,-85,-127,31,-125,-12,-21,3,30,0, 
  /* [48][0][][] */ 45,-5,-17,-52,-10,12,-127,39,53,60,47,-28,87,-28,-15,7, 
  /* [49][0][][] */ 46,100,35,-55,17,-32,-35,-61,-6,-70,-102,60,-14,107,127,109, 
  /* [50][0][][] */ 94,-38,-42,45,-82,-50,12,103,-55,-38,-26,-28,46,-11,-73,127, 
  /* [51][0][][] */ -69,35,-102,16,-38,97,-81,-53,-26,11,88,127,-23,-57,-51,81, 
  /* [52][0][][] */ 104,78,127,78,24,-4,86,81,-27,-119,15,72,-69,4,-40,33, 
  /* [53][0][][] */ -59,58,-8,127,31,-14,24,11,-4,-26,35,97,-15,-61,13,-42, 
  /* [54][0][][] */ -36,-72,-96,-127,62,125,-24,15,22,26,37,-73,58,-1,90,73, 
  /* [55][0][][] */ 127,23,-15,-60,60,-19,-48,25,-111,72,-49,-19,44,11,3,-5, 
  /* [56][0][][] */ -16,-52,57,50,6,28,-32,14,-27,44,29,-15,-42,127,-24,-1, 
  /* [57][0][][] */ 38,-36,4,-37,115,11,8,39,60,127,31,-83,63,35,46,-45, 
  /* [58][0][][] */ 24,26,11,-25,-60,-23,85,32,-56,127,-9,-72,-2,70,65,40, 
  /* [59][0][][] */ -53,43,33,45,83,-76,6,-119,4,-65,39,91,-17,-73,127,-47, 
  /* [60][0][][] */ -15,67,47,-127,-11,104,3,-94,11,32,-10,-127,33,-56,26,-47, 
  /* [61][0][][] */ -127,-47,-14,-9,41,47,-25,-15,10,-103,53,-21,93,2,-21,69, 
  /* [62][0][][] */ -38,17,-61,29,56,-68,54,103,-126,-86,-64,15,127,-72,44,39, 
  /* [63][0][][] */ 30,-65,56,-16,-22,75,-5,-71,-5,-30,15,48,-10,-60,48,-127, 
  /* [64][0][][] */ -92,25,83,-57,-52,17,60,-8,-73,-114,20,29,5,-126,-4,127, 
  /* [65][0][][] */ -25,-1,125,-16,-9,-9,-9,-32,39,105,55,127,81,55,27,49, 
  /* [66][0][][] */ 39,18,-7,-18,-127,4,14,47,39,57,50,44,39,-62,30,54, 
  /* [67][0][][] */ 43,-25,34,-39,-5,36,61,-16,-56,-10,-23,44,1,90,-13,-127, 
  /* [68][0][][] */ 127,85,50,95,8,41,-76,-126,-32,-77,-106,36,8,3,3,81, 
  /* [69][0][][] */ 47,-34,-24,-38,46,-49,-73,-127,-4,-20,-15,-32,8,-9,55,44, 
  /* [70][0][][] */ -3,92,109,82,44,2,-83,90,4,-90,-46,-39,113,8,49,127, 
  /* [71][0][][] */ -70,61,-23,-31,43,-70,-14,-18,-21,-44,-127,54,75,-62,19,-32, 
  /* [72][0][][] */ 63,-7,-9,36,114,-11,-49,23,-40,55,-12,61,-94,-66,-127,27, 
